Language model created by QuickLM on Mon Jul  8 13:50:12 EDT 2013
Copyright (c) 1996-2010 Carnegie Mellon University and Alexander I. Rudnicky

The model is in standard ARPA format, designed by Doug Paul while he was at MITRE.

The code that was used to produce this language model is available in Open Source.
Please visit http://www.speech.cs.cmu.edu/tools/ for more information

The (fixed) discount mass is 0.5. The backoffs are computed using the ratio method.
This model based on a corpus of 81 sentences and 86 words

\data\
ngram 1=86
ngram 2=181
ngram 3=168

\1-grams:
-0.9440 </s> -0.3010
-0.9440 <s> -0.2216
-2.8525 A -0.3004
-2.8525 AND -0.3004
-2.8525 ANSWER -0.2486
-2.5514 ANYTHING -0.2486
-1.9494 ARE -0.2360
-1.8111 ARM -0.2367
-2.8525 AS -0.2486
-2.5514 BABY -0.2472
-2.8525 BYE -0.2486
-2.8525 CALLED -0.2992
-2.3754 CAN -0.2887
-2.8525 CLEVER -0.2486
-2.5514 CLOSE -0.2409
-2.8525 DAD -0.2486
-2.8525 DANIEL -0.2486
-2.8525 DARK -0.2486
-2.5514 DEGREES -0.2486
-2.8525 DIE -0.2486
-1.9494 DO -0.2353
-2.8525 DON'T -0.2486
-2.8525 DOWN -0.2486
-2.5514 EAT -0.2998
-2.5514 ENGINE -0.2998
-2.8525 EVERYTHING -0.2486
-2.8525 EXIT -0.2486
-2.8525 FINE -0.2486
-2.8525 GO -0.2486
-2.5514 GOOD -0.2479
-2.8525 HAPPY -0.2486
-2.8525 HEDDA -0.2486
-2.0743 HELLO -0.2458
-2.5514 HI -0.2486
-2.5514 HOW -0.2430
-2.3754 I -0.2949
-2.3754 I'M -0.2986
-2.0743 IS -0.2458
-2.8525 KILL -0.3004
-2.8525 KISSES -0.2486
-2.8525 KNOW -0.3004
-2.1535 LEFT -0.2451
-2.5514 LET -0.2486
-2.8525 LIGHT -0.2486
-2.8525 LIKE -0.2486
-2.8525 LISTENING -0.2486
-2.3754 LOVE -0.2479
-2.8525 ME -0.2486
-2.8525 MISS -0.2992
-2.3754 MOMY -0.2486
-2.8525 MOTHER -0.3004
-2.5514 MY -0.2980
-2.5514 NAME -0.2444
-2.8525 NO -0.2905
-2.8525 OFF -0.2486
-2.8525 OKEY -0.2486
-2.8525 ON -0.2486
-2.5514 OPEN -0.2409
-2.8525 QUIET -0.2486
-2.5514 RIGHT -0.2486
-1.8111 SAY -0.2918
-2.8525 SHIT -0.3004
-2.8525 SHUT -0.2986
-2.3754 SOMETHING -0.2472
-2.8525 SPEAK -0.2486
-2.8525 STUPID -0.2486
-2.1535 TEN -0.2472
-2.8525 THANK -0.2905
-2.8525 THAT -0.2905
-2.8525 THERE -0.3004
-2.8525 THING -0.3004
-2.8525 THOUNGE -0.2486
-2.2504 TO -0.2974
-2.8525 TORD -0.2486
-2.5514 TURN -0.2967
-2.8525 UNDERSTAND -0.2486
-2.2504 UP -0.2451
-2.3754 UPP -0.2451
-2.8525 WANT -0.2486
-2.0743 WHAT -0.2855
-2.5514 WHERE -0.2924
-2.8525 WHO -0.2961
-2.8525 WHY -0.2486
-1.6220 YOU -0.2303
-2.5514 YOUR -0.2992
-2.8525 YOURSELF -0.2486

\2-grams:
-2.2095 <s> ANSWER 0.0000
-1.7324 <s> ARE -0.0969
-1.2553 <s> ARM -0.0726
-2.2095 <s> AS 0.0000
-2.2095 <s> BABY -0.1761
-1.9085 <s> CAN 0.0000
-1.9085 <s> CLOSE 0.0000
-2.2095 <s> DARK 0.0000
-1.5105 <s> DO -0.0969
-1.9085 <s> EAT 0.0000
-1.9085 <s> ENGINE 0.0000
-2.2095 <s> EXIT 0.0000
-2.2095 <s> GO 0.0000
-2.2095 <s> HELLO -0.2218
-2.2095 <s> HI 0.0000
-1.9085 <s> HOW 0.0000
-1.9085 <s> I -0.1249
-1.7324 <s> I'M 0.0000
-2.2095 <s> IS -0.2632
-2.2095 <s> KILL 0.0000
-2.2095 <s> KISSES 0.0000
-1.9085 <s> LEFT 0.0000
-2.2095 <s> LET 0.0000
-2.2095 <s> LIGHT 0.0000
-2.2095 <s> MY -0.1761
-2.2095 <s> NO 0.0000
-1.9085 <s> OPEN 0.0000
-2.2095 <s> QUIET 0.0000
-1.1681 <s> SAY 0.0000
-2.2095 <s> SHUT 0.0000
-2.2095 <s> SPEAK 0.0000
-2.2095 <s> TEN -0.2041
-2.2095 <s> THANK 0.0000
-1.9085 <s> TURN 0.0000
-2.2095 <s> UP -0.0969
-2.2095 <s> UPP -0.1249
-1.4314 <s> WHAT 0.0000
-1.9085 <s> WHERE 0.0000
-2.2095 <s> WHO 0.0000
-2.2095 <s> WHY 0.0000
-0.3010 A THING 0.0000
-0.3010 AND DIE 0.0000
-0.3010 ANSWER </s> -0.3010
-0.3010 ANYTHING </s> -0.3010
-1.2041 ARE </s> -0.3010
-1.2041 ARE LISTENING 0.0000
-0.4260 ARE YOU -0.1675
-1.0414 ARM </s> -0.3010
-1.3424 ARM DOWN 0.0000
-1.0414 ARM LEFT 0.0000
-1.3424 ARM LET 0.0000
-1.3424 ARM RIGHT 0.0000
-1.0414 ARM UP 0.0000
-1.0414 ARM UPP 0.0000
-0.3010 AS </s> -0.3010
-0.6021 BABY </s> -0.3010
-0.6021 BABY BABY -0.1761
-0.3010 BYE </s> -0.3010
-0.3010 CALLED LOVE -0.1249
-0.7782 CAN I -0.2218
-0.4771 CAN YOU -0.1845
-0.3010 CLEVER </s> -0.3010
-0.6021 CLOSE </s> -0.3010
-0.6021 CLOSE ARM -0.2596
-0.3010 DAD </s> -0.3010
-0.3010 DANIEL </s> -0.3010
-0.3010 DARK </s> -0.3010
-0.3010 DEGREES </s> -0.3010
-0.3010 DIE </s> -0.3010
-1.2041 DO </s> -0.3010
-1.2041 DO ANYTHING 0.0000
-0.4260 DO YOU -0.1120
-0.3010 DON'T </s> -0.3010
-0.3010 DOWN </s> -0.3010
-0.6021 EAT SHIT 0.0000
-0.6021 EAT YOURSELF 0.0000
-0.6021 ENGINE OFF 0.0000
-0.6021 ENGINE ON 0.0000
-0.3010 EVERYTHING </s> -0.3010
-0.3010 EXIT </s> -0.3010
-0.3010 FINE </s> -0.3010
-0.3010 GO </s> -0.3010
-0.6021 GOOD </s> -0.3010
-0.6021 GOOD BYE 0.0000
-0.3010 HAPPY </s> -0.3010
-0.3010 HEDDA </s> -0.3010
-0.7782 HELLO </s> -0.3010
-0.4771 HELLO TO 0.0000
-0.3010 HI </s> -0.3010
-0.6021 HOW </s> -0.3010
-0.6021 HOW ARE -0.0969
-0.7782 I DO -0.2730
-0.7782 I KNOW 0.0000
-0.7782 I MISS 0.0000
-0.7782 I'M FINE 0.0000
-0.7782 I'M GOOD -0.1761
-0.7782 I'M OKEY 0.0000
-0.7782 IS </s> -0.3010
-1.0792 IS THERE 0.0000
-1.0792 IS TORD 0.0000
-0.7782 IS YOUR 0.0000
-0.3010 KILL EVERYTHING 0.0000
-0.3010 KISSES </s> -0.3010
-0.3010 KNOW THAT 0.0000
-0.5229 LEFT </s> -0.3010
-0.6990 LEFT TEN 0.0000
-0.3010 LET </s> -0.3010
-0.3010 LIGHT </s> -0.3010
-0.3010 LIKE </s> -0.3010
-0.3010 LISTENING </s> -0.3010
-0.4771 LOVE </s> -0.3010
-0.7782 LOVE ME 0.0000
-0.3010 ME </s> -0.3010
-0.3010 MISS MOMY 0.0000
-0.3010 MOMY </s> -0.3010
-0.3010 MOTHER THOUNGE 0.0000
-0.6021 MY MOMY 0.0000
-0.6021 MY NAME -0.1761
-0.6021 NAME </s> -0.3010
-0.6021 NAME IS -0.2632
-0.3010 NO YOU -0.2881
-0.3010 OFF </s> -0.3010
-0.3010 OKEY </s> -0.3010
-0.3010 ON </s> -0.3010
-0.6021 OPEN </s> -0.3010
-0.6021 OPEN ARM -0.2596
-0.3010 QUIET </s> -0.3010
-0.3010 RIGHT </s> -0.3010
-1.3424 SAY ANYTHING 0.0000
-1.3424 SAY GOOD -0.1761
-0.6435 SAY HELLO 0.0000
-1.3424 SAY HI 0.0000
-0.8653 SAY SOMETHING 0.0000
-0.3010 SHIT AND 0.0000
-0.3010 SHUT UP -0.0969
-0.7782 SOMETHING </s> -0.3010
-0.7782 SOMETHING CLEVER 0.0000
-0.7782 SOMETHING STUPID 0.0000
-0.3010 SPEAK </s> -0.3010
-0.3010 STUPID </s> -0.3010
-0.5229 TEN </s> -0.3010
-0.6990 TEN DEGREES 0.0000
-0.3010 THANK YOU -0.2009
-0.3010 THAT YOU -0.2881
-0.3010 THERE A 0.0000
-0.3010 THING CALLED 0.0000
-0.3010 THOUNGE </s> -0.3010
-0.9031 TO DAD 0.0000
-0.9031 TO DANIEL 0.0000
-0.9031 TO HEDDA 0.0000
-0.9031 TO MOMY 0.0000
-0.3010 TORD </s> -0.3010
-0.6021 TURN LEFT -0.1461
-0.6021 TURN RIGHT 0.0000
-0.3010 UNDERSTAND </s> -0.3010
-0.4260 UP </s> -0.3010
-0.9031 UP TEN -0.1461
-0.4771 UPP </s> -0.3010
-0.7782 UPP TEN -0.1461
-0.3010 WANT </s> -0.3010
-1.0792 WHAT ARE -0.0969
-1.0792 WHAT CAN -0.1249
-1.0792 WHAT DO -0.0969
-0.6021 WHAT IS -0.1249
-0.6021 WHERE ARE -0.2730
-0.6021 WHERE IS -0.2218
-0.3010 WHO ARE -0.0969
-0.3010 WHY </s> -0.3010
-0.6864 YOU </s> -0.3010
-1.5315 YOU ARE -0.2730
-1.5315 YOU DO -0.2730
-1.5315 YOU DON'T 0.0000
-1.5315 YOU HAPPY 0.0000
-1.5315 YOU LIKE 0.0000
-1.2304 YOU LOVE 0.0000
-1.5315 YOU MY -0.1761
-1.5315 YOU UNDERSTAND 0.0000
-1.5315 YOU WANT 0.0000
-0.6021 YOUR MOTHER 0.0000
-0.6021 YOUR NAME -0.1761
-0.3010 YOURSELF </s> -0.3010

\3-grams:
-0.3010 <s> ANSWER </s>
-0.3010 <s> ARE YOU
-1.2553 <s> ARM DOWN
-0.9542 <s> ARM LEFT
-1.2553 <s> ARM LET
-1.2553 <s> ARM RIGHT
-0.9542 <s> ARM UP
-0.9542 <s> ARM UPP
-0.3010 <s> AS </s>
-0.3010 <s> BABY BABY
-0.6021 <s> CAN I
-0.6021 <s> CAN YOU
-0.6021 <s> CLOSE </s>
-0.6021 <s> CLOSE ARM
-0.3010 <s> DARK </s>
-0.3010 <s> DO YOU
-0.6021 <s> EAT SHIT
-0.6021 <s> EAT YOURSELF
-0.6021 <s> ENGINE OFF
-0.6021 <s> ENGINE ON
-0.3010 <s> EXIT </s>
-0.3010 <s> GO </s>
-0.3010 <s> HELLO </s>
-0.3010 <s> HI </s>
-0.6021 <s> HOW </s>
-0.6021 <s> HOW ARE
-0.6021 <s> I KNOW
-0.6021 <s> I MISS
-0.7782 <s> I'M FINE
-0.7782 <s> I'M GOOD
-0.7782 <s> I'M OKEY
-0.3010 <s> IS THERE
-0.3010 <s> KILL EVERYTHING
-0.3010 <s> KISSES </s>
-0.6021 <s> LEFT </s>
-0.6021 <s> LEFT TEN
-0.3010 <s> LET </s>
-0.3010 <s> LIGHT </s>
-0.3010 <s> MY NAME
-0.3010 <s> NO YOU
-0.6021 <s> OPEN </s>
-0.6021 <s> OPEN ARM
-0.3010 <s> QUIET </s>
-1.3424 <s> SAY ANYTHING
-1.3424 <s> SAY GOOD
-0.6435 <s> SAY HELLO
-1.3424 <s> SAY HI
-0.8653 <s> SAY SOMETHING
-0.3010 <s> SHUT UP
-0.3010 <s> SPEAK </s>
-0.3010 <s> TEN DEGREES
-0.3010 <s> THANK YOU
-0.6021 <s> TURN LEFT
-0.6021 <s> TURN RIGHT
-0.3010 <s> UP </s>
-0.3010 <s> UPP </s>
-1.0792 <s> WHAT ARE
-1.0792 <s> WHAT CAN
-1.0792 <s> WHAT DO
-0.6021 <s> WHAT IS
-0.6021 <s> WHERE ARE
-0.6021 <s> WHERE IS
-0.3010 <s> WHO ARE
-0.3010 <s> WHY </s>
-0.3010 A THING CALLED
-0.3010 AND DIE </s>
-0.3010 ARE LISTENING </s>
-0.4771 ARE YOU </s>
-1.0792 ARE YOU HAPPY
-1.0792 ARE YOU MY
-0.3010 ARM DOWN </s>
-0.6021 ARM LEFT </s>
-0.6021 ARM LEFT TEN
-0.3010 ARM LET </s>
-0.3010 ARM RIGHT </s>
-0.6021 ARM UP </s>
-0.6021 ARM UP TEN
-0.6021 ARM UPP </s>
-0.6021 ARM UPP TEN
-0.3010 BABY BABY </s>
-0.3010 CALLED LOVE </s>
-0.3010 CAN I DO
-0.6021 CAN YOU </s>
-0.6021 CAN YOU DO
-0.3010 CLOSE ARM </s>
-0.3010 DO ANYTHING </s>
-1.0792 DO YOU </s>
-1.0792 DO YOU LIKE
-0.7782 DO YOU LOVE
-1.0792 DO YOU UNDERSTAND
-1.0792 DO YOU WANT
-0.3010 EAT SHIT AND
-0.3010 EAT YOURSELF </s>
-0.3010 ENGINE OFF </s>
-0.3010 ENGINE ON </s>
-0.3010 GOOD BYE </s>
-0.9031 HELLO TO DAD
-0.9031 HELLO TO DANIEL
-0.9031 HELLO TO HEDDA
-0.9031 HELLO TO MOMY
-0.3010 HOW ARE YOU
-0.3010 I DO ANYTHING
-0.3010 I KNOW THAT
-0.3010 I MISS MOMY
-0.3010 I'M FINE </s>
-0.3010 I'M GOOD </s>
-0.3010 I'M OKEY </s>
-0.3010 IS THERE A
-0.3010 IS TORD </s>
-0.6021 IS YOUR MOTHER
-0.6021 IS YOUR NAME
-0.3010 KILL EVERYTHING </s>
-0.3010 KNOW THAT YOU
-0.6021 LEFT TEN </s>
-0.6021 LEFT TEN DEGREES
-0.3010 LOVE ME </s>
-0.3010 MISS MOMY </s>
-0.3010 MOTHER THOUNGE </s>
-0.3010 MY MOMY </s>
-0.3010 MY NAME IS
-0.3010 NAME IS TORD
-0.3010 NO YOU DON'T
-0.3010 OPEN ARM </s>
-0.3010 SAY ANYTHING </s>
-0.3010 SAY GOOD BYE
-1.0000 SAY HELLO </s>
-0.3979 SAY HELLO TO
-0.3010 SAY HI </s>
-0.7782 SAY SOMETHING </s>
-0.7782 SAY SOMETHING CLEVER
-0.7782 SAY SOMETHING STUPID
-0.3010 SHIT AND DIE
-0.3010 SHUT UP </s>
-0.3010 SOMETHING CLEVER </s>
-0.3010 SOMETHING STUPID </s>
-0.3010 TEN DEGREES </s>
-0.3010 THANK YOU </s>
-0.3010 THAT YOU ARE
-0.3010 THERE A THING
-0.3010 THING CALLED LOVE
-0.3010 TO DAD </s>
-0.3010 TO DANIEL </s>
-0.3010 TO HEDDA </s>
-0.3010 TO MOMY </s>
-0.3010 TURN LEFT </s>
-0.3010 TURN RIGHT </s>
-0.3010 UP TEN </s>
-0.3010 UPP TEN </s>
-0.3010 WHAT ARE YOU
-0.3010 WHAT CAN YOU
-0.3010 WHAT DO YOU
-0.7782 WHAT IS </s>
-0.4771 WHAT IS YOUR
-0.3010 WHERE ARE </s>
-0.3010 WHERE IS </s>
-0.3010 WHO ARE YOU
-0.3010 YOU ARE LISTENING
-0.3010 YOU DO </s>
-0.3010 YOU DON'T </s>
-0.3010 YOU HAPPY </s>
-0.3010 YOU LIKE </s>
-0.6021 YOU LOVE </s>
-0.6021 YOU LOVE ME
-0.3010 YOU MY MOMY
-0.3010 YOU UNDERSTAND </s>
-0.3010 YOU WANT </s>
-0.3010 YOUR MOTHER THOUNGE
-0.3010 YOUR NAME </s>

\end\
