#############################################################################
## Copyright (c) 1996, Carnegie Mellon University, Cambridge University,
## Ronald Rosenfeld and Philip Clarkson
## Version 3, Copyright (c) 2006, Carnegie Mellon University 
## Contributors includes Wen Xu, Ananlada Chotimongkol, 
## David Huggins-Daines, Arthur Chan and Alan Black 
#############################################################################
=============================================================================
===============  This file was produced by the CMU-Cambridge  ===============
===============     Statistical Language Modeling Toolkit     ===============
=============================================================================
This is a 3-gram language model, based on a vocabulary of 1985 words,
  which begins "</s>", "<s>", "a"...
This is a CLOSED-vocabulary model
  (OOVs eliminated from training data and are forbidden in test data)
Good-Turing discounting was applied.
1-gram frequency of frequency : 
2-gram frequency of frequency : 
3-gram frequency of frequency : 
1-gram discounting ratios : 
2-gram discounting ratios : 
3-gram discounting ratios : 
This file is in the ARPA-standard format introduced by Doug Paul.

p(wd3|wd1,wd2)= if(trigram exists)           p_3(wd1,wd2,wd3)
                else if(bigram w1,w2 exists) bo_wt_2(w1,w2)*p(wd3|wd2)
                else                         p(wd3|w2)

p(wd2|wd1)= if(bigram exists) p_2(wd1,wd2)
            else              bo_wt_1(wd1)*p_1(wd2)

All probs and back-off weights (bo_wt) are given in log10 form.

Data formats:

Beginning of data mark: \data\
ngram 1=nr            # number of 1-grams
ngram 2=nr            # number of 2-grams
ngram 3=nr            # number of 3-grams

\1-grams:
p_1     wd_1 bo_wt_1
\2-grams:
p_2     wd_1 wd_2 bo_wt_2
\3-grams:
p_3     wd_1 wd_2 wd_3 

end of data mark: \end\

\data\
ngram 1=1985
ngram 2=6249
ngram 3=10400


\1-grams:
-0.7214 </s> -3.4832
-0.7212 <s> -3.3760
-1.8534 a -2.5133
-3.9948 abba -0.6070
-4.2959 abc -0.3856
-3.9948 aber -0.6057
-4.2959 aboie -0.3856
-4.2959 aboies -0.3856
-4.2959 abord -0.3856
-2.4698 about -1.8325
-4.2959 above -0.3856
-4.2959 absolutely -0.3856
-4.2959 absolutes -0.3856
-4.2959 absorbing -0.3856
-4.2959 abusive -0.3856
-4.2959 ach -0.3856
-4.2959 achievement -0.3856
-4.2959 achoo -0.3856
-4.2959 ack -0.3856
-4.2959 act -0.4768
-4.2959 action -0.3856
-4.2959 activate -0.4731
-4.2959 activated -0.4590
-4.2959 actors -0.4752
-3.8187 actually -0.6678
-4.2959 adams -0.3856
-4.2959 address -0.3856
-4.2959 adidas -0.3856
-3.9948 admit -0.6002
-4.2959 adresse -0.3856
-4.2959 advanced -0.3856
-4.2959 advantages -0.3856
-4.2959 advertising -0.3856
-3.9948 advice -0.5106
-4.2959 affen -0.3856
-3.8187 after -0.7301
-4.2959 afternoon -0.3856
-4.2959 again -0.3856
-4.2959 age -0.3856
-3.8187 ago -0.6075
-3.3416 agree -1.0178
-3.9948 ah -0.6074
-4.2959 aha -0.3856
-3.9948 ahead -0.5106
-4.2959 ahem -0.3856
-4.2959 ahhh -0.3856
-4.2959 ahoy -0.3856
-3.5969 ai -0.8533
-4.2959 aids -0.3856
-3.8187 aiml -0.6864
-3.8187 airplanes -0.6865
-4.2959 album -0.3856
-3.9948 algebra -0.5106
-4.2959 algorithms -0.3856
-4.2959 alice -0.3856
-4.2959 alicebot -0.3856
-3.8187 aliens -0.6075
-4.2959 alike -0.3856
-2.7773 all -1.5718
-4.2959 alles -0.3856
-4.2959 alligator -0.3856
-4.2959 allowed -0.4739
-4.2959 almost -0.3856
-3.9948 alone -0.5106
-4.2959 alot -0.3856
-3.2167 already -1.2696
-3.8187 alright -0.6865
-3.9948 alrighty -0.6073
-4.2959 also -0.3856
-4.2959 altavista -0.3856
-3.5177 always -0.9490
-2.4633 am -1.7464
-3.9948 amazing -0.5106
-4.2959 amen -0.3856
-3.4508 america -0.9085
-3.6938 american -0.8603
-4.2959 amerique -0.4770
-4.2959 ammo -0.3856
-4.2959 amnesia -0.3856
-3.0917 an -1.4895
-4.2959 anachist -0.4771
-4.2959 anal -0.3856
-2.8335 and -1.5288
-4.2959 android -0.3856
-4.2959 androids -0.4770
-4.2959 angelfire -0.3856
-4.2959 anger -0.3856
-4.2959 angleterre -0.3856
-3.8187 angry -0.6075
-4.2959 animal -0.3856
-4.2959 animals -0.3856
-4.2959 anne -0.4771
-4.2959 annoying -0.3856
-4.2959 anonymousnewuser -0.3856
-4.2959 anonymousreturninguser -0.3856
-3.4508 another -1.0204
-2.9948 answer -1.3190
-4.2959 answers -0.3856
-4.2959 answewrs -0.3856
-4.2959 anthony -0.3856
-3.0406 any -1.4135
-4.2959 anybody -0.4770
-4.2959 anymore -0.3856
-3.5969 anyone -0.9476
-3.1819 anything -1.1844
-3.9948 anytime -0.6075
-3.9948 anyway -0.5106
-4.2959 anyways -0.3856
-4.2959 anywhere -0.3856
-4.2959 aoeu -0.3856
-4.2959 aol -0.3856
-4.2959 apes -0.3856
-3.9948 apologize -0.5106
-3.5969 apples -0.7536
-4.2959 applet -0.3856
-4.2959 applied -0.3856
-4.2959 apres -0.3856
-4.2959 archives -0.3856
-2.1227 are -2.1379
-4.2959 area -0.4771
-4.2959 argh -0.3856
-4.2959 argue -0.4766
-4.2959 aries -0.3856
-3.9948 arms -0.5950
-4.2959 arrow -0.3856
-4.2959 arsch -0.3856
-4.2959 arschloch -0.3856
-4.2959 arse -0.3856
-3.9948 art -0.5106
-4.2959 arthur -0.4770
-3.3928 artificial -1.0220
-3.5969 as -0.9190
-3.9948 ashbury -0.5106
-3.9948 asimov -0.5106
-2.7518 ask -1.5206
-3.1497 asked -1.1535
-3.8187 asking -0.6642
-4.2959 asleep -0.3856
-3.5969 ass -0.7536
-3.9948 asshole -0.5106
-4.2959 assimilated -0.3856
-4.2959 asssimilated -0.3856
-4.2959 assume -0.3856
-4.2959 assuming -0.3856
-4.2959 astonished -0.3856
-4.2959 astrological -0.4771
-3.0171 at -1.3862
-4.2959 atcha -0.3856
-4.2959 atchoum -0.3856
-4.2959 atom -0.3856
-4.2959 attitude -0.3856
-4.2959 attractive -0.3856
-4.2959 auch -0.3856
-4.2959 aussi -0.3856
-4.2959 austin -0.4771
-4.2959 autant -0.4771
-4.2959 autobahn -0.3856
-4.2959 automobile -0.4771
-4.2959 aux -0.4771
-4.2959 available -0.3856
-4.2959 avant -0.4771
-4.2959 away -0.3856
-3.9948 awesome -0.5106
-4.2959 awnser -0.3856
-4.2959 aww -0.3856
-4.2959 axiomatic -0.3856
-3.9948 ayuh -0.6071
-4.2959 b -0.4770
-4.2959 babe -0.3856
-3.9948 babies -0.6073
-4.2959 baby -0.3856
-3.5969 back -0.9071
-4.2959 backpack -0.3856
-3.0917 bad -1.2297
-3.9948 badly -0.5106
-4.2959 bah -0.3856
-4.2959 bailiff -0.3856
-4.2959 baisons -0.3856
-4.2959 balance -0.3856
-3.9948 balls -0.6983
-4.2959 bananas -0.3856
-4.2959 bark -0.3856
-3.9948 barry -0.5992
-4.2959 bas -0.3856
-4.2959 basic -0.3856
-4.2959 basis -0.3856
-4.2959 bayern -0.3856
-4.2959 bcn -0.3856
-2.6146 be -1.7905
-4.2959 beacuse -0.3856
-4.2959 beans -0.3856
-3.9948 beatles -0.5106
-3.5969 beautiful -0.8115
-4.2959 beauty -0.3856
-4.2959 beavis -0.3856
-3.6938 because -0.7692
-3.8187 become -0.7719
-3.6938 bed -0.7530
-2.9736 been -1.4077
-4.2959 beer -0.3856
-3.2545 before -1.0782
-3.8187 begin -0.6866
-4.2959 behavior -0.3856
-4.2959 behaviour -0.3856
-4.2959 behind -0.4590
-3.5177 being -1.0350
-3.2959 believe -1.1104
-4.2959 belive -0.4590
-4.2959 belong -0.3856
-4.2959 below -0.3856
-4.2959 bend -0.4770
-4.2959 beni -0.3856
-4.2959 benie -0.3856
-4.2959 benz -0.3856
-4.2959 best -0.4769
-3.9948 bet -0.5106
-3.5969 better -0.8114
-4.2959 between -0.4690
-4.2959 bh -0.3856
-4.2959 bi -0.3856
-4.2959 bidding -0.3856
-4.2959 bien -0.3856
-3.2545 big -1.1237
-4.2959 bigger -0.3856
-4.2959 bike -0.3856
-3.8187 bill -0.7781
-4.2959 biologically -0.3856
-4.2959 biologie -0.3856
-4.2959 biology -0.3856
-4.2959 bird -0.3856
-4.2959 birds -0.4770
-3.9948 birthday -0.5924
-4.2959 bismol -0.4771
-3.9948 bit -0.5106
-4.2959 bitch -0.3856
-4.2959 blab -0.3856
-4.2959 black -0.4710
-4.2959 blade -0.4771
-4.2959 blah -0.3856
-4.2959 blame -0.4590
-4.2959 blanc -0.3856
-4.2959 bless -0.4590
-4.2959 bleu -0.3856
-4.2959 blink -0.3856
-4.2959 bloke -0.3856
-3.4508 blue -0.9084
-4.2959 bob -0.4710
-3.9948 bollocks -0.5106
-4.2959 bono -0.4768
-3.8187 boo -0.6866
-3.9948 boobs -0.5106
-3.2959 book -1.0290
-3.2959 books -1.0100
-4.2959 borg -0.3856
-3.2959 boring -1.0280
-3.8187 born -0.7525
-4.2959 borrow -0.4769
-4.2959 boston -0.3856
-3.9948 bot -0.5106
-4.2959 both -0.3856
-3.9948 bother -0.5106
-4.2959 botmaster -0.3856
-3.9948 bowl -0.5106
-4.2959 box -0.3856
-3.9948 boy -0.6072
-3.2959 boyfriend -1.0073
-4.2959 bra -0.3856
-3.9948 bradbury -0.5106
-3.4508 brain -0.8628
-4.2959 bravo -0.3856
-4.2959 brazil -0.3856
-4.2959 brb -0.3856
-4.2959 breathe -0.3856
-3.9948 brilliant -0.5106
-3.8187 brother -0.6715
-4.2959 brown -0.3856
-4.2959 bubbles -0.3856
-4.2959 bug -0.4752
-3.9948 bugs -0.5106
-4.2959 build -0.3856
-4.2959 buisness -0.3856
-4.2959 bull -0.4770
-4.2959 bullshit -0.3856
-4.2959 bungee -0.4771
-4.2959 burp -0.3856
-4.2959 burped -0.3856
-4.2959 bus -0.3856
-4.2959 bush -0.3856
-3.6938 business -0.6867
-3.9948 busy -0.5106
-3.8187 but -0.6766
-4.2959 butt -0.3856
-4.2959 butthead -0.3856
-4.2959 buy -0.3856
-3.2167 by -1.2534
-3.5969 c -0.9084
-3.8187 ca -0.6866
-4.2959 cache -0.4771
-4.2959 calculator -0.3856
-3.9948 calculette -0.5106
-4.2959 californie -0.3856
-3.3928 call -0.9607
-4.2959 calm -0.4771
-3.9948 came -0.6019
-4.2959 camera -0.3856
-2.2466 can -1.9767
-4.2959 capable -0.4757
-3.8187 capital -0.6976
-4.2959 capitals -0.3856
-4.2959 capricorne -0.3856
-3.6938 car -0.6867
-3.6938 care -0.7518
-4.2959 careful -0.3856
-3.9948 carefully -0.5106
-4.2959 cares -0.3856
-4.2959 cars -0.3856
-3.8187 case -0.6075
-3.9948 cat -0.5924
-3.3928 cats -0.9496
-4.2959 cauchemards -0.3856
-4.2959 caulfield -0.3856
-4.2959 cent -0.3856
-4.2959 century -0.3856
-4.2959 certain -0.3856
-3.8187 cerveau -0.7781
-3.8187 cha -0.6866
-3.9948 chair -0.5106
-3.3928 change -1.0136
-4.2959 changes -0.4770
-4.2959 changez -0.4770
-3.9948 changing -0.5980
-4.2959 charles -0.4771
-4.2959 charlie -0.4771
-3.6938 chat -0.7536
-4.2959 chatted -0.3856
-3.5969 chatting -0.9011
-4.2959 cheated -0.3856
-4.2959 checked -0.3856
-3.6938 cheese -0.6867
-3.9948 chess -0.5106
-4.2959 chewbacca -0.3856
-4.2959 chicago -0.4770
-3.5969 chicken -0.8113
-4.2959 chies -0.4769
-3.9948 child -0.6867
-3.9948 children -0.5106
-4.2959 chinese -0.4770
-4.2959 choice -0.3856
-4.2959 chose -0.4731
-3.9948 christmas -0.5106
-4.2959 church -0.3856
-4.2959 cigarette -0.3856
-4.2959 cigarettes -0.3856
-3.6938 cinq -0.8114
-4.2959 circuit -0.3856
-4.2959 circumstances -0.3856
-4.2959 city -0.3856
-4.2959 clams -0.3856
-3.9948 clarify -0.5975
-3.9948 clark -0.5106
-3.9948 clarke -0.5106
-4.2959 clean -0.4741
-4.2959 clear -0.3856
-4.2959 cleared -0.4769
-4.2959 clearly -0.3856
-4.2959 client -0.3856
-3.8187 clients -0.6075
-4.2959 climb -0.3856
-3.9948 clinton -0.6075
-3.9948 clock -0.6073
-4.2959 clones -0.3856
-3.8187 close -0.7531
-3.9948 clothes -0.5106
-3.9948 cloudy -0.5106
-3.9948 cock -0.5106
-3.9948 code -0.6989
-4.2959 coffee -0.3856
-3.9948 coincidence -0.5106
-4.2959 coins -0.3856
-4.2959 coke -0.3856
-3.6938 cold -0.8111
-3.9948 collect -0.6989
-3.8187 college -0.6075
-2.7396 color -1.5224
-4.2959 com -0.3856
-4.2959 coma -0.4771
-3.9948 combien -0.6020
-3.5969 come -0.9022
-3.9948 comfortable -0.5106
-4.2959 comment -0.3856
-4.2959 common -0.3856
-3.9948 como -0.6989
-4.2959 company -0.4768
-4.2959 complete -0.3856
-3.6938 complicated -0.6867
-3.8187 compliment -0.6075
-4.2959 comply -0.3856
-3.9948 composed -0.6948
-3.0171 computer -1.2660
-4.2959 computerics -0.3856
-3.2167 computers -1.1966
-4.2959 con -0.3856
-3.9948 conditions -0.5106
-4.2959 confidential -0.3856
-4.2959 confuse -0.4736
-4.2959 confused -0.4590
-4.2959 congratualtions -0.3856
-4.2959 congratulations -0.3856
-4.2959 connector -0.3856
-4.2959 consciousness -0.3856
-3.6938 contact -0.7531
-4.2959 context -0.3856
-4.2959 continues -0.3856
-4.2959 continuez -0.3856
-4.2959 contradict -0.4770
-3.8187 cook -0.6864
-3.2545 cool -1.1085
-4.2959 cop -0.4769
-4.2959 copy -0.3856
-4.2959 corner -0.3856
-4.2959 corners -0.3856
-3.8187 correct -0.6075
-3.8187 cost -0.7531
-4.2959 cough -0.3856
-3.2545 could -1.1036
-3.9948 count -0.6034
-3.8187 country -0.6075
-4.2959 course -0.3856
-4.2959 cows -0.3856
-4.2959 cramped -0.4752
-4.2959 crash -0.3856
-4.2959 crashed -0.3856
-4.2959 cray -0.3856
-4.2959 crazy -0.3856
-3.9948 create -0.5840
-3.6938 created -0.8846
-4.2959 creater -0.3856
-3.8187 creator -0.6075
-4.2959 creators -0.4764
-4.2959 creature -0.4649
-4.2959 crichton -0.3856
-4.2959 criticism -0.3856
-3.9948 crois -0.6987
-4.2959 crow -0.4710
-4.2959 croyez -0.4770
-3.8187 cry -0.6075
-4.2959 cthreepo -0.3856
-3.9948 cunt -0.5106
-4.2959 cup -0.3856
-4.2959 curiosity -0.3856
-4.2959 curious -0.3856
-4.2959 cut -0.4731
-3.6938 cute -0.6867
-4.2959 cya -0.3856
-4.2959 cycle -0.3856
-4.2959 d -0.4771
-3.9948 dad -0.5106
-4.2959 daddy -0.3856
-3.9948 dallas -0.5106
-3.8187 damn -0.7235
-4.2959 danach -0.3856
-3.9948 dance -0.5106
-3.6938 dangerous -0.6867
-4.2959 dank -0.3856
-4.2959 danke -0.3856
-4.2959 darn -0.3856
-4.2959 darwin -0.3856
-3.9948 data -0.6070
-3.2545 day -1.1115
-4.2959 days -0.4752
-3.5969 de -0.9541
-3.5177 dead -0.8618
-4.2959 deal -0.3856
-4.2959 death -0.3856
-4.2959 debbie -0.4760
-4.2959 decide -0.3856
-4.2959 decided -0.3856
-3.6938 deduction -0.7535
-4.2959 deep -0.4771
-3.9948 define -0.6930
-4.2959 defined -0.3856
-4.2959 definitely -0.3856
-4.2959 definitiv -0.3856
-4.2959 dell -0.3856
-4.2959 depend -0.4766
-3.9948 depends -0.5106
-4.2959 depression -0.4771
-3.9948 depuis -0.6020
-3.9948 der -0.6989
-3.9948 derby -0.5106
-4.2959 des -0.4771
-4.2959 designates -0.4731
-4.2959 destroy -0.4590
-4.2959 dickhead -0.3856
-4.2959 dictionary -0.3856
-2.4208 did -1.7857
-2.8645 die -1.3709
-3.3416 died -0.9499
-4.2959 dies -0.3856
-3.6938 different -0.8108
-3.9948 difficult -0.5106
-4.2959 digress -0.3856
-4.2959 dingue -0.3856
-4.2959 directed -0.4769
-4.2959 directory -0.3856
-4.2959 dirty -0.4767
-4.2959 dis -0.3856
-3.9948 disagree -0.5106
-3.9948 discovered -0.6987
-4.2959 discussing -0.4590
-4.2959 disponible -0.3856
-4.2959 dive -0.3856
-4.2959 dmx -0.3856
-1.6388 do -2.4981
-4.2959 documentation -0.3856
-2.5798 does -1.7394
-3.6938 dog -0.7962
-3.5969 dogs -0.8075
-4.2959 doh -0.3856
-3.2167 doing -1.1987
-4.2959 dommage -0.3856
-4.2959 donation -0.3856
-3.8187 done -0.6766
-4.2959 dork -0.3856
-4.2959 doubt -0.4720
-4.2959 douglas -0.4771
-3.9948 down -0.5106
-4.2959 downloading -0.3856
-3.5969 dream -0.8099
-3.9948 dreams -0.5106
-3.3928 dress -0.9723
-3.9948 drink -0.6075
-4.2959 drinking -0.3856
-4.2959 drive -0.3856
-4.2959 drogen -0.3856
-4.2959 drop -0.4731
-4.2959 drove -0.3856
-3.9948 drums -0.5106
-3.5177 du -0.9498
-3.9948 dude -0.5106
-3.9948 dumb -0.5106
-4.2959 dumbass -0.3856
-4.2959 dummy -0.3856
-4.2959 dying -0.3856
-3.9948 e -0.6075
-4.2959 early -0.3856
-4.2959 earn -0.3856
-4.2959 ears -0.3856
-3.5969 earth -0.8627
-4.2959 ease -0.3856
-3.9948 easter -0.5106
-3.6938 easy -0.7536
-3.5969 eat -0.9003
-4.2959 echo -0.4752
-4.2959 eecs -0.3856
-4.2959 effects -0.3856
-3.9948 egg -0.5106
-4.2959 eh -0.3856
-3.9948 eight -0.5106
-3.9948 eighty -0.6986
-3.9948 einen -0.5106
-3.9948 either -0.5106
-4.2959 elders -0.3856
-4.2959 electric -0.4771
-3.5969 electricity -0.9082
-4.2959 elephant -0.4771
-4.2959 eleven -0.3856
-3.3928 eliza -0.9491
-3.0171 else -1.2866
-3.4508 elvis -0.9866
-4.2959 email -0.4649
-4.2959 emotion -0.3856
-3.8187 end -0.6075
-4.2959 enemy -0.3856
-3.4508 england -0.8628
-3.4508 english -0.9462
-4.2959 enlightenment -0.3856
-4.2959 enlisted -0.3856
-3.5969 enough -0.7536
-4.2959 entertain -0.4736
-3.9948 entity -0.5106
-3.9948 entrain -0.6020
-4.2959 er -0.3856
-4.2959 ernst -0.3856
-4.2959 err -0.3856
-4.2959 errr -0.3856
-4.2959 es -0.4771
-4.2959 essen -0.3856
-3.8187 est -0.7781
-3.9948 esta -0.5106
-4.2959 estas -0.3856
-4.2959 etwas -0.4771
-4.2959 euh -0.3856
-4.2959 eukaryote -0.3856
-3.5969 europe -0.7536
-3.8187 even -0.8364
-4.2959 evening -0.3856
-3.3416 ever -1.2286
-3.8187 every -0.8447
-4.2959 everyday -0.3856
-4.2959 everyone -0.3856
-3.6938 everything -0.7536
-4.2959 everywhere -0.3856
-4.2959 evidence -0.3856
-4.2959 evident -0.3856
-3.8187 evil -0.6075
-4.2959 exactement -0.3856
-3.9948 exactly -0.5106
-3.9948 exciting -0.5106
-4.2959 excuse -0.4736
-4.2959 exhale -0.3856
-3.2959 exist -0.9877
-3.9948 existes -0.6072
-4.2959 exists -0.3856
-4.2959 expect -0.4690
-4.2959 expensive -0.3856
-3.9948 experience -0.5106
-4.2959 experiences -0.3856
-3.8187 explain -0.6075
-3.9948 explaining -0.5975
-4.2959 explanation -0.3856
-3.9948 explication -0.6074
-4.2959 explorer -0.3856
-4.2959 expression -0.3856
-4.2959 eye -0.3856
-3.3416 eyes -1.0170
-4.2959 face -0.3856
-4.2959 faces -0.3856
-3.6938 fact -0.6867
-4.2959 facts -0.3856
-4.2959 fag -0.3856
-4.2959 failed -0.3856
-4.2959 fails -0.3856
-3.9948 fair -0.6073
-4.2959 falsch -0.3856
-3.9948 famous -0.5106
-4.2959 far -0.4769
-4.2959 fart -0.3856
-4.2959 farted -0.3856
-4.2959 fascinating -0.3856
-3.9948 fashion -0.5950
-3.8187 fast -0.7343
-4.2959 faszinierend -0.3856
-4.2959 fat -0.3856
-3.5177 father -0.9340
-3.0406 favorite -1.3379
-4.2959 fear -0.4771
-4.2959 february -0.3856
-3.3416 feel -1.1589
-3.9948 feelings -0.5106
-4.2959 feels -0.4761
-4.2959 feet -0.4771
-4.2959 felicitation -0.3856
-4.2959 felicitations -0.3856
-4.2959 fell -0.4771
-4.2959 felt -0.4768
-3.4508 female -0.9082
-4.2959 femelle -0.3856
-3.9948 few -0.6074
-3.9948 fiction -0.5106
-3.8187 fifty -0.8441
-3.9948 fight -0.5106
-3.9948 figure -0.6007
-4.2959 figured -0.3856
-4.2959 film -0.3856
-4.2959 final -0.4767
-4.2959 finally -0.3856
-3.1819 find -1.3090
-3.5177 fine -0.8626
-4.2959 fink -0.3856
-3.3416 first -1.0495
-3.9948 fish -0.5106
-3.8187 five -0.6866
-4.2959 flaws -0.3856
-4.2959 flies -0.4745
-4.2959 floor -0.3856
-3.6938 fly -0.7460
-3.9948 fois -0.6074
-4.2959 follow -0.4736
-4.2959 food -0.3856
-3.9948 fool -0.5840
-4.2959 fooled -0.4590
-3.6938 football -0.6867
-2.8187 for -1.4849
-4.2959 forbin -0.4771
-3.9948 forever -0.5106
-3.5969 forget -0.8566
-3.9948 forgive -0.6772
-3.9948 forgot -0.5106
-4.2959 form -0.3856
-4.2959 formulated -0.4731
-4.2959 fortunecity -0.3856
-4.2959 forty -0.4767
-4.2959 forum -0.3856
-4.2959 found -0.4769
-3.9948 four -0.6072
-4.2959 france -0.4649
-3.5969 francisco -0.7536
-4.2959 frank -0.4771
-3.9948 frankenstein -0.5106
-3.4508 free -1.0164
-3.9948 french -0.5106
-3.2959 friend -1.0073
-4.2959 friendly -0.3856
-3.3928 friends -0.9374
-4.2959 frighten -0.4736
-4.2959 frog -0.4769
-3.0654 from -1.2751
-4.2959 ftp -0.4769
-4.2959 fu -0.3856
-3.4508 fuck -0.9885
-3.9948 fucker -0.5106
-3.9948 fucking -0.5106
-4.2959 fuenf -0.4771
-3.8187 full -0.7760
-3.2959 fun -1.0504
-3.8187 functions -0.6075
-3.2545 funny -1.0542
-4.2959 futile -0.3856
-3.6938 future -0.6867
-4.2959 fuzzy -0.4771
-4.2959 g -0.3856
-3.2545 game -1.0506
-3.9948 games -0.5106
-4.2959 ganz -0.3856
-4.2959 gap -0.3856
-4.2959 gates -0.4771
-4.2959 gave -0.4713
-3.5177 gay -0.8116
-4.2959 gee -0.3856
-4.2959 geht -0.4771
-4.2959 gemini -0.3856
-4.2959 genau -0.4771
-3.9948 generation -0.5106
-4.2959 genetic -0.3856
-4.2959 geometry -0.3856
-3.9948 george -0.6989
-4.2959 german -0.3856
-4.2959 germany -0.3856
-4.2959 gestation -0.4771
-3.0917 get -1.4394
-4.2959 gibs -0.4770
-4.2959 gibson -0.3856
-3.8187 girl -0.6075
-3.3416 girlfriend -0.9726
-4.2959 girls -0.3856
-3.8187 give -0.7720
-3.9948 glad -0.6034
-4.2959 global -0.4771
-2.8045 go -1.5447
-4.2959 goal -0.3856
-4.2959 goat -0.3856
-4.2959 goes -0.4771
-3.3928 going -0.9459
-3.8187 gold -0.6075
-4.2959 golf -0.3856
-4.2959 gone -0.4766
-4.2959 goo -0.3856
-2.6426 good -1.7375
-4.2959 goodnight -0.3856
-4.2959 goofed -0.3856
-4.2959 goog -0.3856
-4.2959 gosh -0.3856
-3.5177 gossip -0.8476
-3.9948 got -0.6931
-4.2959 gotcha -0.3856
-3.9948 gott -0.6075
-4.2959 graduated -0.3856
-4.2959 grand -0.4771
-3.9948 grandir -0.5106
-4.2959 grandit -0.3856
-3.8187 grass -0.7383
-3.4508 great -0.9085
-4.2959 greatest -0.4771
-4.2959 greed -0.3856
-3.3928 green -0.9464
-4.2959 greetings -0.3856
-4.2959 greys -0.3856
-4.2959 groovy -0.4771
-4.2959 grossartig -0.3856
-4.2959 grow -0.4769
-4.2959 growing -0.3856
-4.2959 grr -0.3856
-4.2959 grrr -0.3856
-4.2959 gruselig -0.3856
-3.1819 guess -1.2001
-4.2959 guest -0.3856
-3.9948 guitar -0.5106
-3.9948 gut -0.5106
-4.2959 guts -0.3856
-3.9948 guy -0.5106
-4.2959 guys -0.4771
-3.9948 h -0.6075
-3.8187 ha -0.6866
-3.6938 had -0.8039
-3.9948 haight -0.6020
-3.5969 hair -0.7991
-4.2959 handle -0.3856
-3.8187 hands -0.6742
-4.2959 handsome -0.3856
-4.2959 hang -0.4769
-4.2959 hanukkah -0.3856
-3.9948 happen -0.5106
-4.2959 happened -0.3856
-4.2959 happier -0.4771
-3.8187 happy -0.6866
-3.8187 hard -0.6826
-4.2959 harm -0.4710
-4.2959 harrisburg -0.3856
-4.2959 harrison -0.3856
-3.9948 harry -0.6987
-3.5969 has -0.8491
-2.7518 hate -1.6533
-2.2024 have -2.0497
-2.4829 he -1.8527
-3.9948 head -0.5106
-4.2959 heading -0.3856
-3.4508 hear -0.9768
-3.5969 heard -0.9738
-4.2959 heart -0.3856
-3.6938 hell -0.7529
-3.9948 hello -0.6051
-3.5177 help -0.8815
-4.2959 helpful -0.3856
-3.6938 her -0.7535
-4.2959 herbert -0.3856
-3.0654 here -1.2288
-4.2959 hermaphrodite -0.3856
-3.8187 hey -0.7525
-3.8187 hi -0.7473
-3.9948 hier -0.5106
-4.2959 high -0.4770
-2.9948 him -1.2654
-4.2959 himself -0.3856
-4.2959 hip -0.4771
-4.2959 hit -0.4766
-4.2959 hmm -0.3856
-4.2959 hmmm -0.3856
-4.2959 hmmmm -0.3856
-4.2959 hmph -0.3856
-4.2959 hoax -0.3856
-4.2959 hobbies -0.3856
-4.2959 hobbit -0.3856
-4.2959 hobby -0.3856
-4.2959 hockey -0.3856
-3.9948 hola -0.6075
-4.2959 holden -0.4771
-4.2959 holding -0.4771
-4.2959 hollow -0.3856
-3.5969 home -0.7536
-3.9948 homer -0.6075
-4.2959 honest -0.3856
-4.2959 honestly -0.3856
-4.2959 honey -0.3856
-4.2959 hoo -0.3856
-4.2959 hoop -0.4770
-4.2959 hop -0.3856
-3.6938 hope -0.8460
-4.2959 hopefully -0.4770
-3.6938 horses -0.6867
-3.9948 hospital -0.6075
-3.5969 hot -0.8092
-3.8187 house -0.6075
-1.9820 how -2.2401
-4.2959 hug -0.4736
-4.2959 huge -0.3856
-3.9948 huh -0.5975
-4.2959 hula -0.4771
-3.4508 human -0.9083
-4.2959 humanity -0.4771
-3.4508 humans -0.9498
-3.2545 hundred -1.1133
-4.2959 hunt -0.3856
-4.2959 hurry -0.4769
-3.9948 hurt -0.6038
-3.9948 hurts -0.5106
-4.2959 husband -0.4649
-4.2959 hyperbole -0.3856
-1.4621 i -2.7425
-4.2959 ici -0.3856
-3.9948 idea -0.5106
-3.8187 idiot -0.6075
-4.2959 idiotic -0.3856
-3.2545 if -1.1415
-3.9948 illegal -0.5106
-3.9948 im -0.6980
-4.2959 imagine -0.3856
-4.2959 imho -0.3856
-4.2959 imitation -0.4769
-4.2959 immense -0.3856
-4.2959 immer -0.3856
-4.2959 immoral -0.3856
-3.5969 immortal -0.7536
-3.9948 important -0.5106
-3.9948 importe -0.6989
-3.8187 impossible -0.6075
-4.2959 impressive -0.3856
-2.3514 in -1.9706
-4.2959 inappropriate -0.3856
-4.2959 including -0.4736
-4.2959 incroyable -0.3856
-4.2959 indeed -0.3856
-4.2959 independent -0.3856
-4.2959 inevitable -0.3856
-4.2959 inhale -0.3856
-4.2959 init -0.3856
-4.2959 insects -0.3856
-3.9948 insist -0.5106
-4.2959 instrument -0.3856
-4.2959 insult -0.4590
-3.8187 intellect -0.6075
-4.2959 intellectual -0.4771
-4.2959 intellegence -0.3856
-4.2959 intelligence -0.3856
-3.6938 intelligent -0.8073
-4.2959 intelligenz -0.3856
-4.2959 interessant -0.3856
-3.6938 interessante -0.8114
-3.9948 interested -0.6051
-3.2167 interesting -1.1388
-4.2959 interressante -0.4770
-4.2959 intestine -0.3856
-3.9948 into -0.5975
-4.2959 intriguing -0.3856
-4.2959 intuitive -0.3856
-3.5969 invented -0.7536
-4.2959 ironic -0.3856
-1.5571 is -2.6250
-4.2959 isaac -0.4771
-4.2959 ishmael -0.3856
-4.2959 isp -0.4769
-1.8726 it -2.3297
-4.2959 itch -0.3856
-3.9948 its -0.6984
-4.2959 itself -0.3856
-4.2959 japanese -0.3856
-4.2959 japonais -0.3856
-4.2959 jaune -0.3856
-3.6938 java -0.6867
-4.2959 jeans -0.3856
-4.2959 jedi -0.3856
-4.2959 jeeves -0.3856
-3.6938 jerk -0.6867
-4.2959 jester -0.3856
-4.2959 jfk -0.3856
-3.3416 job -0.9726
-4.2959 johannesburg -0.3856
-3.9948 john -0.6020
-3.3928 joke -0.9085
-4.2959 jokes -0.3856
-4.2959 joking -0.3856
-4.2959 jr -0.3856
-4.2959 jules -0.4771
-4.2959 jump -0.3856
-4.2959 jungfrau -0.3856
-4.2959 jures -0.4769
-3.1497 just -1.3134
-4.2959 k -0.3856
-4.2959 kamikaze -0.3856
-4.2959 karl -0.4771
-4.2959 kat -0.3856
-4.2959 kennedy -0.3856
-4.2959 kentucky -0.4771
-4.2959 keywords -0.3856
-4.2959 kid -0.3856
-3.8187 kidding -0.6075
-3.6938 kill -0.7312
-3.6938 killed -0.8625
-4.2959 killing -0.4590
-4.2959 kimono -0.3856
-2.9534 kind -1.3066
-4.2959 kinder -0.3856
-3.9948 kinds -0.5106
-3.6938 kiss -0.8782
-4.2959 kissed -0.4768
-4.2959 kite -0.3856
-4.2959 kkk -0.3856
-3.6938 knew -0.8387
-3.9948 knock -0.6074
-2.2747 know -1.9805
-4.2959 knowledge -0.3856
-4.2959 knows -0.3856
-4.2959 korea -0.3856
-4.2959 kosovo -0.3856
-3.5969 kraftwerk -0.8464
-4.2959 ktwelve -0.3856
-3.4508 la -0.9875
-4.2959 lala -0.3856
-4.2959 lalala -0.3856
-4.2959 lalalala -0.3856
-4.2959 lalalalala -0.3856
-3.3928 language -1.0053
-3.5969 languages -0.8471
-4.2959 large -0.4771
-3.4508 last -1.1740
-3.9948 late -0.6067
-4.2959 lately -0.3856
-3.8187 later -0.6075
-4.2959 latest -0.4770
-4.2959 latter -0.3856
-3.8187 laugh -0.6075
-4.2959 lautet -0.4771
-4.2959 lawyer -0.3856
-3.8187 lawyers -0.6866
-3.5177 le -0.9498
-4.2959 lead -0.3856
-3.5969 learn -0.8076
-3.5177 leave -0.8584
-3.9948 lebt -0.5106
-3.9948 legs -0.5950
-3.9948 lehigh -0.5106
-4.2959 lela -0.4744
-4.2959 lem -0.3856
-4.2959 lemons -0.3856
-3.9948 lennon -0.5924
-4.2959 leo -0.4771
-4.2959 leprechauns -0.4770
-4.2959 lernen -0.3856
-4.2959 lesbian -0.3856
-4.2959 lesbiene -0.3856
-4.2959 lesbienne -0.3856
-4.2959 less -0.3856
-2.9156 let -1.4273
-4.2959 lets -0.3856
-4.2959 letter -0.3856
-4.2959 level -0.4771
-4.2959 liar -0.3856
-4.2959 liberated -0.3856
-3.3928 lie -0.9085
-4.2959 lied -0.3856
-3.1198 life -1.2541
-2.2277 like -2.0702
-3.9948 liked -0.6908
-4.2959 likely -0.3856
-3.9948 likes -0.6772
-4.2959 likewise -0.3856
-4.2959 limitaions -0.3856
-4.2959 limitations -0.3856
-4.2959 limited -0.4771
-4.2959 linguist -0.3856
-3.9948 linguistic -0.6020
-4.2959 link -0.3856
-4.2959 linus -0.4771
-3.5177 linux -0.9083
-4.2959 lion -0.3856
-4.2959 liquid -0.3856
-3.8187 listen -0.6826
-3.9948 listening -0.5106
-3.6938 little -0.8619
-3.0654 live -1.2845
-4.2959 liverpool -0.4770
-4.2959 living -0.4770
-4.2959 lizards -0.3856
-4.2959 localhost -0.4770
-4.2959 loebner -0.4771
-3.9948 logic -0.5106
-4.2959 logo -0.3856
-4.2959 lol -0.3856
-4.2959 london -0.3856
-3.9948 lonely -0.5106
-2.9736 long -1.3510
-4.2959 longfellow -0.3856
-4.2959 loo -0.3856
-3.3416 look -1.0504
-4.2959 looking -0.4767
-3.9948 lose -0.5106
-3.8187 lost -0.7475
-3.5177 lot -0.8610
-4.2959 lots -0.3856
-4.2959 lottery -0.3856
-3.4508 love -0.9953
-4.2959 lovely -0.3856
-4.2959 lucas -0.3856
-4.2959 luck -0.3856
-3.9948 lying -0.5106
-4.2959 lynx -0.3856
-4.2959 m -0.4710
-4.2959 ma -0.4771
-4.2959 mac -0.3856
-4.2959 machine -0.3856
-3.9948 machines -0.6065
-4.2959 macintosh -0.3856
-4.2959 macs -0.3856
-4.2959 mad -0.3856
-3.2959 made -1.0966
-3.9948 magazine -0.5106
-4.2959 magical -0.3856
-4.2959 maid -0.3856
-3.9948 main -0.5106
-4.2959 maine -0.3856
-4.2959 maintenant -0.3856
-2.8487 make -1.6072
-3.1497 makes -1.2929
-3.6938 making -0.9357
-4.2959 malaisie -0.3856
-4.2959 malaysia -0.3856
-4.2959 malaysie -0.3856
-3.6938 male -0.7533
-3.9948 mall -0.5106
-4.2959 mama -0.3856
-4.2959 mammal -0.3856
-3.9948 mammals -0.5106
-3.4508 man -0.9082
-4.2959 manchmal -0.3856
-4.2959 manges -0.4770
-4.2959 mangez -0.4770
-4.2959 manhattan -0.3856
-4.2959 mantra -0.3856
-4.2959 manufactured -0.3856
-2.8335 many -1.6011
-4.2959 married -0.3856
-3.8187 mars -0.6075
-4.2959 martini -0.3856
-4.2959 marx -0.3856
-4.2959 massachusetts -0.4649
-4.2959 massive -0.3856
-4.2959 masterbater -0.3856
-3.9948 math -0.5106
-4.2959 mathematics -0.3856
-3.9948 matrix -0.5106
-3.5177 matter -0.8610
-3.5177 may -0.9205
-4.2959 maybe -0.3856
-4.2959 mccaffrey -0.3856
-4.2959 mccarthy -0.3856
-2.0917 me -2.1454
-4.2959 meal -0.3856
-3.1819 mean -1.1924
-3.9948 meaning -0.6007
-3.9948 meaningless -0.5106
-4.2959 means -0.3856
-3.9948 meant -0.5106
-4.2959 measure -0.3856
-4.2959 mechant -0.3856
-3.2959 meet -1.0000
-4.2959 meeting -0.4590
-4.2959 mehr -0.4771
-3.9948 meme -0.6989
-3.9948 memory -0.5106
-4.2959 men -0.3856
-3.9948 mention -0.6849
-4.2959 mercedes -0.4771
-4.2959 mere -0.3856
-4.2959 merry -0.4771
-3.2545 met -1.1593
-4.2959 meurt -0.3856
-3.9948 mich -0.5106
-4.2959 michael -0.4771
-4.2959 microchips -0.4769
-3.8187 microsoft -0.6075
-4.2959 middle -0.4764
-3.9948 mieux -0.5106
-3.9948 might -0.5106
-4.2959 mignon -0.3856
-4.2959 mignonne -0.3856
-4.2959 mignonnes -0.3856
-4.2959 mignons -0.3856
-3.9948 mike -0.5106
-4.2959 mile -0.3856
-4.2959 miles -0.3856
-4.2959 milk -0.3856
-4.2959 million -0.4771
-3.2545 mind -1.0845
-3.3928 mine -1.0066
-4.2959 mineral -0.3856
-4.2959 minsky -0.4770
-3.9948 minute -0.5106
-4.2959 minuten -0.3856
-3.8187 minutes -0.6866
-3.5969 mir -0.9084
-3.8187 miss -0.7564
-3.9948 missed -0.6778
-4.2959 missing -0.3856
-4.2959 misspelled -0.3856
-4.2959 mistake -0.3856
-4.2959 mistyped -0.3856
-4.2959 misunderstood -0.3856
-3.9948 moechtest -0.6019
-3.4508 moi -0.9083
-3.9948 mom -0.5924
-3.8187 moment -0.6075
-3.4508 money -0.8628
-4.2959 monica -0.3856
-4.2959 months -0.3856
-4.2959 montre -0.4770
-3.9948 montres -0.6019
-4.2959 moon -0.3856
-4.2959 moonlight -0.4771
-4.2959 moons -0.3856
-3.1198 more -1.2762
-4.2959 morgen -0.3856
-3.8187 morning -0.6075
-3.8187 most -0.8410
-3.3416 mother -1.0691
-3.9948 move -0.5106
-3.0406 movie -1.2592
-3.5969 movies -0.7536
-4.2959 mozilla -0.3856
-2.8487 much -1.4682
-4.2959 murderers -0.3856
-3.8187 music -0.6075
-4.2959 musical -0.4771
-3.4508 must -1.0683
-4.2959 mxmvii -0.4768
-2.1655 my -2.3041
-3.8187 myself -0.6075
-3.9948 n -0.6020
-4.2959 naked -0.3856
-2.7773 name -1.5075
-4.2959 named -0.4590
-4.2959 names -0.3856
-4.2959 nationalite -0.3856
-4.2959 nationality -0.4757
-4.2959 natuerlich -0.3856
-4.2959 necessarily -0.3856
-4.2959 neck -0.4757
-4.2959 necklace -0.4649
-3.3416 need -1.1406
-3.9948 negative -0.6075
-4.2959 negre -0.3856
-4.2959 nein -0.3856
-4.2959 neither -0.3856
-4.2959 nenn -0.4770
-4.2959 nenne -0.4770
-3.9948 net -0.5106
-4.2959 netherlands -0.3856
-4.2959 netscape -0.3856
-4.2959 neutral -0.3856
-3.2545 never -1.2243
-4.2959 nevermind -0.3856
-3.4508 new -0.9864
-3.6938 next -0.9024
-2.7907 nice -1.5640
-4.2959 nichons -0.3856
-3.4508 nicht -1.0843
-4.2959 nichts -0.3856
-4.2959 nickname -0.4649
-4.2959 nie -0.3856
-4.2959 niedlich -0.3856
-4.2959 niemals -0.3856
-3.6938 night -0.6867
-4.2959 nightmares -0.3856
-4.2959 nimmst -0.4770
-3.2167 nine -1.1123
-3.6938 ninety -0.9027
-4.2959 nipple -0.3856
-4.2959 nix -0.3856
-2.8809 no -1.5112
-4.2959 nobody -0.4747
-4.2959 noch -0.4770
-4.2959 noises -0.3856
-3.5177 none -0.8610
-4.2959 nope -0.3856
-4.2959 north -0.4770
-1.7530 not -2.3983
-4.2959 notes -0.3856
-3.2167 nothing -1.1855
-4.2959 noticed -0.3856
-3.8187 now -0.7206
-4.2959 nowhere -0.3856
-4.2959 nsa -0.3856
-3.8187 number -0.7384
-3.9948 nummer -0.6989
-4.2959 o -0.3856
-4.2959 oakland -0.3856
-4.2959 obey -0.4736
-4.2959 observe -0.3856
-3.5177 obvious -0.8587
-4.2959 obviously -0.3856
-4.2959 ocean -0.3856
-4.2959 oefters -0.3856
-2.4897 of -1.9057
-3.5177 off -0.9046
-4.2959 offend -0.4590
-4.2959 offensichtlich -0.3856
-4.2959 office -0.3856
-4.2959 oft -0.3856
-3.5177 often -0.8857
-4.2959 oftmals -0.3856
-3.9948 oh -0.6984
-4.2959 ohio -0.3856
-3.8187 ok -0.6860
-3.9948 okay -0.5106
-3.5177 old -0.9132
-3.9948 om -0.5106
-2.9341 on -1.4130
-4.2959 onanieren -0.3856
-3.8187 once -0.6866
-2.7396 one -1.5768
-3.9948 ones -0.5106
-4.2959 online -0.3856
-3.6938 only -0.9348
-4.2959 oops -0.3856
-3.9948 open -0.6075
-3.6938 opera -0.6867
-4.2959 operating -0.4771
-4.2959 opern -0.3856
-3.9948 opinion -0.5106
-3.2167 or -1.2820
-4.2959 orange -0.3856
-4.2959 oranges -0.3856
-4.2959 order -0.3856
-4.2959 org -0.3856
-4.2959 oscars -0.3856
-3.4508 other -1.1755
-4.2959 ouch -0.3856
-3.2167 out -1.1566
-3.9948 outside -0.5106
-3.4508 over -1.0094
-4.2959 overdose -0.3856
-3.9948 own -0.6807
-4.2959 p -0.3856
-3.9948 paid -0.5106
-4.2959 paint -0.3856
-4.2959 pandora -0.4770
-4.2959 pants -0.3856
-4.2959 paradox -0.3856
-4.2959 parallel -0.3856
-4.2959 parameters -0.3856
-3.9948 parents -0.5106
-3.9948 paris -0.5106
-4.2959 parler -0.4771
-4.2959 part -0.3856
-4.2959 party -0.3856
-3.9948 password -0.5924
-4.2959 patient -0.3856
-3.9948 pays -0.6075
-4.2959 pc -0.4770
-4.2959 peace -0.3856
-4.2959 peanuts -0.3856
-4.2959 pediatrician -0.3856
-4.2959 peek -0.4710
-4.2959 pence -0.4765
-3.9948 penis -0.5106
-4.2959 pennsylvania -0.4649
-3.0171 people -1.3483
-3.9948 pepperoni -0.5106
-4.2959 pepto -0.4771
-4.2959 perfect -0.3856
-4.2959 perhaps -0.3856
-4.2959 permission -0.3856
-3.5177 person -0.8627
-3.9948 personal -0.6068
-3.9948 personality -0.6020
-3.6938 persuade -0.7846
-4.2959 pet -0.3856
-4.2959 petes -0.3856
-4.2959 petez -0.3856
-4.2959 petit -0.4771
-3.8187 pets -0.6864
-3.8187 peut -0.7535
-4.2959 peux -0.3856
-4.2959 ph -0.4771
-4.2959 philosopher -0.3856
-4.2959 philosophie -0.3856
-4.2959 phone -0.4771
-4.2959 piano -0.3856
-3.8187 pick -0.7712
-3.6938 picture -0.7519
-4.2959 pie -0.3856
-3.9948 piece -0.6007
-4.2959 piers -0.4771
-3.9948 pigs -0.6020
-4.2959 pills -0.3856
-4.2959 pin -0.3856
-4.2959 ping -0.3856
-4.2959 pink -0.3856
-4.2959 piss -0.3856
-4.2959 pity -0.3856
-3.8187 place -0.7492
-3.9948 plan -0.5106
-4.2959 plane -0.3856
-3.8187 planet -0.8403
-4.2959 planets -0.3856
-4.2959 plants -0.4769
-4.2959 plato -0.3856
-2.9534 play -1.4749
-4.2959 player -0.3856
-4.2959 playing -0.3856
-3.6938 please -0.7982
-4.2959 pleased -0.4739
-3.6938 pleasure -0.7385
-4.2959 plein -0.3856
-4.2959 pleures -0.4769
-4.2959 plumber -0.3856
-3.5969 plus -0.9492
-4.2959 plusieurs -0.4771
-4.2959 poetry -0.3856
-3.8187 point -0.6075
-4.2959 pokemon -0.3856
-3.9948 poland -0.5106
-4.2959 polite -0.3856
-4.2959 poo -0.3856
-4.2959 poop -0.3856
-4.2959 poopoo -0.3856
-4.2959 poor -0.3856
-4.2959 popo -0.3856
-4.2959 poppen -0.3856
-4.2959 porn -0.3856
-4.2959 portes -0.4769
-4.2959 portland -0.3856
-3.6938 possible -0.6867
-4.2959 possibly -0.3856
-4.2959 potato -0.3856
-4.2959 pound -0.3856
-4.2959 powers -0.3856
-3.8187 practise -0.6766
-3.9948 pray -0.5106
-4.2959 precise -0.3856
-3.9948 prefer -0.6072
-4.2959 pregnant -0.3856
-4.2959 prendre -0.3856
-3.6938 president -0.6867
-3.8187 pretty -0.7525
-4.2959 price -0.3856
-4.2959 pride -0.3856
-4.2959 pries -0.4769
-3.9948 prize -0.5106
-4.2959 pro -0.4771
-3.9948 probably -0.5979
-3.5177 problem -0.8116
-3.8187 problems -0.6075
-4.2959 processor -0.3856
-4.2959 processors -0.4670
-4.2959 producer -0.3856
-4.2959 product -0.3856
-4.2959 professor -0.4767
-4.2959 profound -0.3856
-3.4508 program -0.9195
-4.2959 programme -0.4590
-3.8187 programmed -0.7580
-4.2959 programmer -0.3856
-3.9948 programming -0.6073
-4.2959 project -0.3856
-4.2959 prokaryote -0.3856
-4.2959 promise -0.3856
-4.2959 proposition -0.3856
-4.2959 prove -0.4713
-4.2959 proverb -0.3856
-4.2959 pup -0.3856
-3.9948 purple -0.5106
-3.9948 purpose -0.5106
-4.2959 pussy -0.3856
-4.2959 que -0.4771
-2.8809 question -1.3557
-3.5969 questions -0.7536
-4.2959 qui -0.3856
-4.2959 quiet -0.3856
-4.2959 quit -0.4770
-4.2959 quite -0.3856
-4.2959 quoi -0.3856
-4.2959 r -0.4590
-4.2959 radio -0.3856
-4.2959 rain -0.3856
-3.9948 raining -0.6060
-4.2959 random -0.4770
-3.9948 rather -0.6905
-4.2959 ray -0.4771
-3.0917 read -1.3292
-4.2959 reading -0.3856
-4.2959 reads -0.3856
-4.2959 reagan -0.4731
-3.4508 real -0.9083
-3.5177 really -0.9342
-4.2959 reason -0.3856
-4.2959 reasoning -0.3856
-4.2959 recipes -0.3856
-4.2959 recognize -0.4720
-4.2959 recorded -0.3856
-3.6938 red -0.7460
-4.2959 regards -0.3856
-4.2959 relax -0.3856
-4.2959 relaxed -0.3856
-4.2959 relaxing -0.3856
-4.2959 rem -0.4769
-3.0406 remember -1.2816
-4.2959 remembered -0.3856
-4.2959 rencontrer -0.3856
-4.2959 repeat -0.4771
-4.2959 rephrase -0.3856
-4.2959 replace -0.3856
-4.2959 replied -0.3856
-4.2959 reply -0.4771
-4.2959 reprogramming -0.3856
-4.2959 resistance -0.4649
-4.2959 respect -0.4743
-4.2959 responding -0.3856
-4.2959 rest -0.3856
-4.2959 retard -0.3856
-4.2959 return -0.4757
-4.2959 reword -0.3856
-3.8187 rhymes -0.6985
-3.8187 rich -0.6853
-4.2959 richtig -0.3856
-3.8187 riddle -0.6075
-3.2167 right -1.1436
-4.2959 road -0.3856
-4.2959 roads -0.4771
-4.2959 robin -0.4771
-4.2959 robocop -0.3856
-4.2959 robot -0.3856
-3.9948 rock -0.6075
-4.2959 rocky -0.3856
-4.2959 roller -0.4771
-3.6938 room -0.6867
-4.2959 rose -0.3856
-4.2959 round -0.3856
-4.2959 rti -0.3856
-4.2959 rtwodtwo -0.3856
-4.2959 ruby -0.3856
-3.8187 rude -0.6075
-3.8187 rule -0.6075
-4.2959 rules -0.3856
-4.2959 rumor -0.3856
-3.9948 run -0.6073
-4.2959 runner -0.3856
-3.5969 s -0.9496
-3.9948 sad -0.5106
-4.2959 safe -0.3856
-4.2959 saggitarius -0.3856
-2.8979 said -1.4367
-4.2959 salaud -0.3856
-4.2959 sally -0.3856
-4.2959 salod -0.3856
-4.2959 salope -0.3856
-4.2959 salut -0.3856
-4.2959 salutations -0.3856
-4.2959 sam -0.3856
-3.5177 same -0.9042
-3.5969 san -0.8450
-4.2959 sandwich -0.3856
-3.9948 sarcasm -0.5106
-3.9948 sarcastic -0.5106
-4.2959 save -0.3856
-3.9948 saw -0.5999
-2.5969 say -1.6671
-3.5969 saying -0.8053
-3.9948 says -0.6790
-4.2959 scare -0.4736
-3.8187 scary -0.6075
-4.2959 scenery -0.3856
-4.2959 schade -0.3856
-4.2959 scheisse -0.3856
-4.2959 schlaf -0.4771
-4.2959 schlampe -0.3856
-3.4508 school -0.8628
-4.2959 schuetze -0.3856
-3.8187 science -0.6866
-4.2959 scorpio -0.3856
-4.2959 scorpion -0.3856
-4.2959 scott -0.4770
-3.9948 screen -0.5106
-3.9948 screw -0.6807
-4.2959 scuba -0.4771
-3.8187 se -0.8450
-4.2959 search -0.3856
-4.2959 searched -0.3856
-3.8187 secret -0.6075
-2.9534 see -1.4023
-4.2959 seeking -0.3856
-4.2959 seem -0.4745
-4.2959 seems -0.4745
-3.2545 seen -1.2784
-4.2959 sei -0.4771
-4.2959 self -0.4771
-4.2959 selling -0.3856
-3.2167 sense -1.0829
-4.2959 sera -0.3856
-3.9948 series -0.5106
-4.2959 serious -0.3856
-4.2959 seriously -0.3856
-4.2959 serre -0.4770
-4.2959 serrer -0.4770
-4.2959 setl -0.3856
-4.2959 seul -0.3856
-4.2959 seule -0.3856
-3.6938 seven -0.7533
-4.2959 seventies -0.3856
-4.2959 seventy -0.4770
-4.2959 several -0.4771
-4.2959 sf -0.3856
-4.2959 shall -0.3856
-4.2959 shallow -0.4770
-4.2959 shame -0.3856
-3.0406 she -1.2715
-4.2959 sheep -0.3856
-4.2959 sheesh -0.3856
-4.2959 shiny -0.3856
-3.6938 shirt -0.6867
-3.5177 shit -0.8116
-4.2959 shithead -0.3856
-4.2959 shoe -0.4771
-3.9948 shoes -0.5106
-3.9948 short -0.6075
-4.2959 shorts -0.3856
-4.2959 shot -0.4771
-2.7396 should -1.5523
-3.3928 show -1.0180
-4.2959 shut -0.4769
-4.2959 si -0.4769
-3.8187 sick -0.6075
-4.2959 sida -0.3856
-4.2959 side -0.3856
-4.2959 sie -0.4771
-4.2959 sigh -0.3856
-3.8187 sign -0.6075
-4.2959 signe -0.3856
-4.2959 similarity -0.3856
-4.2959 simpson -0.3856
-3.9948 simpsons -0.6074
-4.2959 simulation -0.3856
-3.5969 sing -0.8114
-3.9948 single -0.5106
-3.6938 sister -0.7385
-3.5969 six -0.8111
-3.8187 sixty -0.7780
-4.2959 size -0.3856
-4.2959 skate -0.3856
-4.2959 ski -0.3856
-3.9948 skin -0.5106
-4.2959 skorpion -0.3856
-3.8187 sky -0.6865
-4.2959 skydive -0.3856
-3.2545 sleep -1.0544
-4.2959 slow -0.4771
-4.2959 slut -0.3856
-3.3416 smart -1.0530
-3.5177 smarter -0.8625
-3.8187 smell -0.6835
-4.2959 smile -0.3856
-4.2959 smileys -0.3856
-4.2959 smooth -0.3856
-4.2959 smoothly -0.3856
-4.2959 sneeze -0.3856
-4.2959 sneezed -0.3856
-4.2959 snow -0.4649
-2.8809 so -1.4451
-4.2959 socializing -0.3856
-3.5177 some -0.9872
-3.9948 someone -0.6043
-3.2545 something -1.0541
-3.9948 sometimes -0.5106
-4.2959 somewhere -0.3856
-3.9948 sonata -0.5106
-3.5177 song -0.8116
-3.6938 songs -0.7411
-3.6938 soon -0.7347
-3.6938 sorry -0.7528
-4.2959 sort -0.4757
-3.3928 sound -1.1352
-3.8187 sounds -0.7777
-3.9948 source -0.6989
-4.2959 south -0.4770
-4.2959 southbank -0.3856
-4.2959 southern -0.4770
-3.9948 soyez -0.6989
-3.9948 space -0.5106
-3.9948 spanish -0.5106
-4.2959 spare -0.4765
-3.2545 speak -1.1346
-3.9948 special -0.6075
-4.2959 species -0.3856
-3.9948 specific -0.5106
-3.9948 speech -0.5106
-3.9948 spell -0.6075
-3.8187 sport -0.6075
-3.5969 sports -0.7536
-4.2959 squash -0.3856
-4.2959 stamps -0.3856
-3.3928 stand -0.9993
-4.2959 stanislaw -0.4771
-4.2959 stanley -0.4771
-3.0406 star -1.3218
-4.2959 stars -0.4752
-3.2545 starship -1.1137
-3.8187 start -0.7458
-3.8187 state -0.6075
-4.2959 statement -0.3856
-4.2959 states -0.3856
-4.2959 stay -0.4752
-4.2959 steinbock -0.3856
-4.2959 stereotyping -0.3856
-4.2959 steve -0.3856
-4.2959 stier -0.3856
-4.2959 still -0.4770
-4.2959 stink -0.3856
-4.2959 stinks -0.3856
-3.3928 stop -1.0946
-4.2959 stoppe -0.3856
-4.2959 stopped -0.3856
-3.9948 store -0.5106
-4.2959 stories -0.3856
-3.5177 story -0.8116
-4.2959 strange -0.3856
-4.2959 street -0.3856
-4.2959 stress -0.4771
-4.2959 stressed -0.3856
-4.2959 string -0.3856
-3.8187 student -0.6849
-4.2959 students -0.3856
-4.2959 studied -0.4770
-4.2959 study -0.3856
-3.9948 stuff -0.5106
-3.3416 stupid -0.9836
-4.2959 stupidity -0.3856
-4.2959 stutter -0.3856
-3.4508 subject -0.8628
-4.2959 submit -0.3856
-4.2959 subst -0.3856
-4.2959 such -0.4770
-3.9948 suck -0.5106
-4.2959 sucker -0.3856
-3.5177 sucks -0.8116
-4.2959 sud -0.3856
-4.2959 sugar -0.4770
-3.9948 suggest -0.6034
-3.8187 sujet -0.6075
-3.9948 sun -0.5106
-4.2959 sunny -0.3856
-4.2959 super -0.4771
-3.8187 superbowl -0.6075
-4.2959 supermarket -0.3856
-4.2959 supports -0.3856
-3.9948 suppose -0.6068
-3.3928 sure -0.9911
-4.2959 surf -0.3856
-4.2959 surpising -0.3856
-4.2959 surprisingly -0.3856
-4.2959 swear -0.3856
-4.2959 sweatshirt -0.3856
-4.2959 swedish -0.3856
-3.9948 sweet -0.5106
-4.2959 swim -0.3856
-4.2959 swimming -0.3856
-4.2959 systems -0.3856
-4.2959 t -0.3856
-4.2959 ta -0.4771
-3.3416 take -1.1378
-3.9948 talent -0.6064
-2.8045 talk -1.4699
-3.5177 talked -0.9450
-3.2545 talking -1.0506
-3.8187 tall -0.6848
-4.2959 tant -0.4771
-4.2959 tard -0.3856
-4.2959 targets -0.4670
-4.2959 task -0.3856
-3.5969 taste -0.8583
-4.2959 tastes -0.4761
-4.2959 taught -0.4771
-4.2959 taureau -0.3856
-4.2959 taurus -0.3856
-3.2545 teach -1.0322
-3.9948 teacher -0.5106
-4.2959 telephone -0.4770
-4.2959 television -0.3856
-2.6146 tell -1.6281
-3.9948 temps -0.6987
-3.9948 ten -0.5106
-3.9948 tennis -0.6075
-4.2959 terminal -0.3856
-3.8187 terminator -0.6861
-4.2959 terrible -0.3856
-3.6938 test -0.7846
-4.2959 tete -0.4770
-3.3928 than -1.1176
-3.6938 thank -0.7601
-3.9948 thanks -0.5106
-4.2959 thanksgiving -0.3856
-1.9322 that -2.2325
-2.0358 the -2.3491
-3.9948 their -0.6989
-3.5177 them -0.8116
-3.5177 then -0.9608
-4.2959 theory -0.3856
-2.8979 there -1.3945
-4.2959 therefore -0.4619
-2.8809 they -1.4984
-3.3416 thing -0.9995
-3.5177 things -0.8626
-2.7518 think -1.5028
-3.5969 thinking -0.8098
-3.8187 thirty -0.8450
-2.8809 this -1.4645
-4.2959 those -0.4770
-3.5969 thought -0.8396
-3.0654 thousand -1.2497
-4.2959 threat -0.3856
-3.5969 three -0.8116
-4.2959 threepzero -0.3856
-4.2959 throat -0.3856
-4.2959 through -0.4731
-2.8645 time -1.4326
-3.8187 times -0.6075
-4.2959 titanic -0.3856
-4.2959 title -0.3856
-4.2959 titten -0.3856
-2.1256 to -2.1312
-4.2959 toast -0.3856
-4.2959 today -0.3856
-4.2959 together -0.3856
-3.6938 toi -0.8627
-4.2959 toilet -0.3856
-3.1198 told -1.2335
-3.9948 tolstoy -0.5106
-4.2959 tomate -0.3856
-4.2959 tomato -0.3856
-4.2959 tomatoes -0.3856
-3.9948 tomorrow -0.5106
-3.5969 ton -0.9998
-4.2959 tongue -0.3856
-3.9948 tonight -0.5106
-3.0654 too -1.2761
-3.5177 topic -0.8116
-4.2959 torvalds -0.3856
-4.2959 toujours -0.4770
-4.2959 tourbus -0.3856
-4.2959 tragic -0.3856
-3.9948 train -0.5106
-4.2959 travel -0.3856
-3.9948 traviata -0.5106
-4.2959 trees -0.3856
-3.1497 trek -1.2055
-4.2959 tried -0.3856
-3.2545 troopers -1.0511
-3.4508 true -0.9022
-4.2959 trumpet -0.3856
-3.9948 trust -0.6772
-3.6938 truth -0.6867
-3.2545 try -1.1372
-4.2959 tschuess -0.3856
-3.3416 tu -1.0544
-3.5969 turn -0.9226
-4.2959 turning -0.4769
-4.2959 tusks -0.4769
-3.6938 tv -0.7535
-4.2959 twelve -0.3856
-3.6938 twenty -0.7535
-4.2959 twice -0.3856
-2.9948 two -1.3387
-3.5969 type -0.8610
-4.2959 typo -0.3856
-4.2959 ueber -0.4771
-4.2959 ugh -0.3856
-3.9948 ugly -0.5106
-4.2959 uk -0.3856
-4.2959 und -0.4770
-3.1819 understand -1.1600
-4.2959 undrestand -0.4690
-4.2959 united -0.4771
-4.2959 universe -0.3856
-4.2959 university -0.3856
-4.2959 unix -0.3856
-4.2959 unlikely -0.3856
-4.2959 unsettling -0.3856
-4.2959 unterhalte -0.4771
-4.2959 until -0.4590
-3.2545 up -1.1305
-4.2959 upon -0.4710
-2.9341 us -1.4528
-4.2959 usatoday -0.3856
-4.2959 use -0.4743
-4.2959 users -0.4768
-3.9948 usually -0.5106
-4.2959 valis -0.3856
-4.2959 verne -0.3856
-4.2959 version -0.3856
-3.1819 very -1.2672
-4.2959 vetements -0.3856
-4.2959 veteranarian -0.3856
-4.2959 video -0.4769
-3.9948 vie -0.5106
-4.2959 viel -0.3856
-4.2959 vierge -0.3856
-4.2959 view -0.3856
-4.2959 village -0.4771
-4.2959 violin -0.3856
-4.2959 virgin -0.3856
-4.2959 visual -0.4771
-4.2959 vit -0.4771
-4.2959 von -0.4771
-4.2959 votre -0.4771
-3.5969 voyager -0.8081
-4.2959 voyages -0.4769
-4.2959 w -0.4771
-3.5177 wait -0.8552
-3.6938 waiting -0.7775
-4.2959 wake -0.4769
-3.6938 walk -0.6867
-4.2959 walked -0.3856
-4.2959 wann -0.3856
-2.6938 want -1.5633
-3.9948 war -0.6928
-3.6938 warm -0.8109
-3.6938 wars -0.7531
-2.4829 was -1.8498
-3.9948 watch -0.6017
-4.2959 water -0.3856
-3.2959 way -1.0578
-3.8187 ways -0.6075
-2.6331 we -1.6818
-3.8187 wear -0.7535
-3.8187 wearing -0.6075
-3.5969 weather -0.8597
-4.2959 website -0.3856
-3.8187 weird -0.7520
-4.2959 welcome -0.3856
-4.2959 weld -0.3856
-3.3416 well -1.0183
-4.2959 wells -0.3856
-4.2959 wem -0.3856
-4.2959 weniger -0.3856
-3.2959 went -1.1998
-3.0654 were -1.3308
-1.7336 what -2.4068
-4.2959 whatever -0.3856
-2.7907 when -1.4986
-4.2959 whenever -0.3856
-2.5716 where -1.6668
-3.1819 which -1.3913
-4.2959 while -0.4771
-3.8187 white -0.6075
-2.3716 who -1.9349
-4.2959 whoa -0.3856
-4.2959 whole -0.4769
-4.2959 whom -0.3856
-4.2959 whoops -0.3856
-4.2959 whore -0.3856
-4.2959 whose -0.3856
-2.3227 why -1.9330
-4.2959 widder -0.3856
-4.2959 wierd -0.3856
-3.9948 wife -0.5924
-2.4897 will -1.7556
-4.2959 william -0.4771
-3.1819 win -1.1077
-4.2959 wind -0.3856
-3.9948 winning -0.5975
-4.2959 wires -0.3856
-3.6938 wish -0.7312
-2.9341 with -1.4083
-3.9948 without -0.6987
-4.2959 woe -0.3856
-3.8187 woman -0.6075
-3.8187 won -0.6817
-3.9948 wonder -0.5106
-4.2959 wonderful -0.3856
-4.2959 wondering -0.3856
-4.2959 wonderland -0.3856
-4.2959 woods -0.3856
-4.2959 words -0.3856
-3.1819 work -1.1607
-4.2959 working -0.4766
-4.2959 works -0.3856
-3.3928 world -1.0467
-4.2959 worry -0.4756
-2.6831 would -1.5756
-4.2959 wow -0.3856
-4.2959 write -0.3856
-4.2959 writing -0.3856
-3.9948 written -0.6001
-3.3416 wrong -1.0213
-3.6938 wrote -0.8989
-4.2959 wtf -0.3856
-4.2959 www -0.3856
-4.2959 x -0.4649
-4.2959 xena -0.3856
-4.2959 xml -0.3856
-4.2959 ya -0.3856
-3.8187 yadda -0.6866
-3.6938 year -0.7531
-3.9948 years -0.5106
-3.9948 yellow -0.5106
-3.1198 yes -1.2464
-3.6938 yesterday -0.6867
-3.9948 yet -0.5106
-3.9948 yo -0.6075
-3.8187 york -0.7535
-1.3895 you -2.7830
-2.1819 your -2.3104
-4.2959 youre -0.4710
-3.4508 yours -0.8628
-3.4508 yourself -0.9081
-99.0000 yummy 0.0000
-3.9948 zero -0.5999

\2-grams:
-0.0001 </s> <s> 0.0854
-2.0068 <s> a -1.5457
-3.3590 <s> abc 0.1761
-3.1829 <s> aber 0.2218
-3.3590 <s> aboie 0.1761
-3.3590 <s> aboies 0.1761
-2.8819 <s> about -0.6355
-3.3590 <s> absolutely 0.1761
-3.3590 <s> ach 0.1761
-3.3590 <s> achoo 0.1761
-3.3590 <s> ack 0.1761
-3.3590 <s> activate 0.1761
-3.1829 <s> actually 0.3010
-3.3590 <s> adidas 0.1761
-3.3590 <s> admit -0.0792
-3.3590 <s> after -0.1549
-3.3590 <s> age 0.1761
-3.1829 <s> agree -0.2663
-3.1829 <s> ah 0.2218
-3.3590 <s> aha 0.1761
-3.3590 <s> ahhh 0.1761
-3.3590 <s> ahoy 0.1761
-3.3590 <s> aids 0.1761
-3.3590 <s> album 0.1761
-3.3590 <s> algebra 0.3010
-3.3590 <s> aliens 0.3979
-2.5808 <s> all -0.8734
-3.3590 <s> alles 0.1761
-3.3590 <s> alligator 0.1761
-3.3590 <s> almost 0.1761
-3.1829 <s> alright 0.3010
-3.1829 <s> alrighty 0.2218
-3.3590 <s> also 0.1761
-3.3590 <s> altavista 0.1761
-3.3590 <s> always -0.1047
-2.0368 <s> am -1.0035
-3.3590 <s> amazing 0.3010
-3.3590 <s> amen 0.1761
-3.3590 <s> america -0.2041
-3.1829 <s> american -0.2218
-3.3590 <s> amerique 0.1761
-3.3590 <s> ammo 0.1761
-3.3590 <s> amnesia 0.1761
-3.1829 <s> an -0.4171
-3.3590 <s> anachist 0.1761
-3.3590 <s> anal 0.1761
-2.8149 <s> and -0.7321
-3.3590 <s> angelfire 0.1761
-3.3590 <s> anger 0.1761
-3.3590 <s> angleterre 0.1761
-3.3590 <s> animal 0.1761
-3.3590 <s> anne 0.1761
-3.3590 <s> anonymousnewuser 0.1761
-3.3590 <s> anonymousreturninguser 0.1761
-3.1829 <s> another -0.2663
-2.8819 <s> answer -0.4929
-3.1829 <s> any -0.4058
-3.1829 <s> anyone -0.2808
-3.0580 <s> anything -0.2041
-3.1829 <s> anytime 0.2218
-3.3590 <s> anyway 0.3010
-3.3590 <s> anyways 0.1761
-3.3590 <s> anywhere 0.1761
-3.3590 <s> aoeu 0.1761
-3.3590 <s> aol 0.1761
-3.3590 <s> apologize 0.3010
-3.3590 <s> apples 0.5441
-3.3590 <s> archives 0.1761
-2.1829 <s> are -1.1846
-3.3590 <s> argh 0.1761
-3.3590 <s> aries 0.1761
-3.3590 <s> arsch 0.1761
-3.3590 <s> arschloch 0.1761
-3.3590 <s> art 0.3010
-3.3590 <s> arthur 0.1761
-3.3590 <s> artificial -0.0902
-3.1829 <s> as -0.2808
-3.3590 <s> asimov 0.3010
-2.4296 <s> ask -0.8077
-3.3590 <s> asshole 0.3010
-2.6186 <s> at -0.7140
-3.3590 <s> atcha 0.1761
-3.3590 <s> atchoum 0.1761
-3.3590 <s> austin 0.1761
-3.3590 <s> autant 0.1761
-3.3590 <s> aux 0.1761
-3.3590 <s> avant 0.1761
-3.3590 <s> aww 0.1761
-3.3590 <s> ayuh -0.0792
-3.3590 <s> baby 0.1761
-3.3590 <s> back -0.2041
-3.1829 <s> bad 0.1461
-3.3590 <s> badly 0.3010
-3.3590 <s> bah 0.1761
-3.3590 <s> baisons 0.1761
-3.3590 <s> bark 0.1761
-3.3590 <s> bcn 0.1761
-2.5461 <s> be -0.9455
-3.3590 <s> beacuse 0.1761
-3.3590 <s> beavis 0.1761
-2.9610 <s> because 0.2041
-3.3590 <s> before -0.2389
-3.1829 <s> begin 0.3010
-3.3590 <s> behind 0.1761
-3.1829 <s> believe -0.3358
-3.3590 <s> bend 0.1761
-3.1829 <s> better 0.4260
-3.3590 <s> between 0.1761
-3.3590 <s> bh 0.1761
-3.3590 <s> bi 0.1761
-3.3590 <s> bien 0.1761
-3.0580 <s> big -0.3259
-3.3590 <s> bigger 0.1761
-3.3590 <s> bill 0.0000
-3.3590 <s> biologically 0.1761
-3.3590 <s> biologie 0.1761
-3.3590 <s> biology 0.1761
-3.3590 <s> bitch 0.1761
-3.3590 <s> blade 0.1761
-3.3590 <s> blah 0.1761
-3.3590 <s> blanc 0.1761
-3.3590 <s> bless 0.1761
-3.3590 <s> bleu 0.1761
-3.3590 <s> blue 0.2218
-3.3590 <s> bollocks 0.3010
-3.1829 <s> boo 0.3010
-3.3590 <s> boobs 0.3010
-3.3590 <s> books 0.3358
-3.3590 <s> boring 0.1461
-3.3590 <s> both 0.1761
-3.3590 <s> boy -0.0792
-3.3590 <s> bra 0.1761
-3.3590 <s> bradbury 0.3010
-3.3590 <s> bravo 0.1761
-3.3590 <s> brb 0.1761
-3.3590 <s> brilliant 0.3010
-3.3590 <s> bubbles 0.1761
-3.3590 <s> bull 0.1761
-3.3590 <s> bullshit 0.1761
-3.3590 <s> burp 0.1761
-3.1829 <s> but 0.3010
-3.3590 <s> butthead 0.1761
-3.3590 <s> buy 0.1761
-2.6186 <s> by -0.1568
-3.1829 <s> c -0.1761
-3.3590 <s> californie 0.1761
-3.0580 <s> call 0.0000
-3.3590 <s> calm 0.1761
-2.1037 <s> can -1.1552
-3.3590 <s> capricorne 0.1761
-3.3590 <s> carefully 0.3010
-3.3590 <s> cats -0.2139
-3.3590 <s> cauchemards 0.1761
-3.1829 <s> cha 0.3010
-3.1829 <s> change -0.1413
-3.3590 <s> changes 0.1761
-3.3590 <s> changez 0.1761
-3.3590 <s> changing 0.3010
-3.3590 <s> charles 0.1761
-3.3590 <s> cheese 0.4771
-3.3590 <s> chicken 0.0000
-3.3590 <s> chies 0.1761
-3.3590 <s> cigarettes 0.1761
-3.1829 <s> cinq -0.1761
-3.1829 <s> clarify 0.2218
-3.3590 <s> clarke 0.3010
-3.3590 <s> clearly 0.1761
-3.1829 <s> close -0.1091
-3.3590 <s> cock 0.3010
-3.3590 <s> cold -0.0969
-3.3590 <s> com 0.1761
-3.3590 <s> come -0.1761
-3.1829 <s> como 0.2218
-3.3590 <s> comply 0.1761
-3.3590 <s> computerics 0.1761
-2.8149 <s> computers -0.3892
-3.3590 <s> conditions 0.3010
-3.3590 <s> congratualtions 0.1761
-3.3590 <s> congratulations 0.1761
-3.3590 <s> continues 0.1761
-3.3590 <s> continuez 0.1761
-3.0580 <s> cool 0.1249
-3.3590 <s> correct 0.3979
-3.3590 <s> cough 0.1761
-3.1829 <s> could -0.2467
-3.3590 <s> count -0.0792
-3.1829 <s> crois 0.2218
-3.3590 <s> croyez 0.1761
-3.3590 <s> cthreepo 0.1761
-3.3590 <s> cunt 0.3010
-3.3590 <s> curiosity 0.1761
-3.3590 <s> cute 0.4771
-3.3590 <s> cya 0.1761
-3.3590 <s> dallas 0.3010
-3.0580 <s> damn 0.2430
-3.3590 <s> danach 0.1761
-3.3590 <s> dangerous 0.4771
-3.3590 <s> danke 0.1761
-3.3590 <s> darn 0.1761
-3.3590 <s> data -0.0792
-3.3590 <s> debbie 0.1761
-3.3590 <s> deduction -0.1549
-3.3590 <s> deep 0.1761
-3.1829 <s> define 0.2218
-3.3590 <s> definitely 0.1761
-3.3590 <s> definitiv 0.1761
-3.3590 <s> dell 0.1761
-3.1829 <s> depuis 0.1249
-3.3590 <s> dickhead 0.1761
-2.3590 <s> did -0.8687
-3.3590 <s> die 1.1614
-3.3590 <s> dingue 0.1761
-3.3590 <s> dmx 0.1761
-1.6226 <s> do -1.1637
-2.7058 <s> does -0.6920
-3.1829 <s> dogs -0.2730
-3.3590 <s> doh 0.1761
-3.3590 <s> dommage 0.1761
-3.1829 <s> done 0.3010
-3.3590 <s> dork 0.1761
-3.3590 <s> douglas 0.1761
-3.3590 <s> dreams 0.3010
-3.3590 <s> dude 0.3010
-3.3590 <s> dumbass 0.1761
-3.1829 <s> e 0.2218
-3.0580 <s> eat -0.2041
-3.3590 <s> eecs 0.1761
-3.3590 <s> eh 0.1761
-3.3590 <s> eighty -0.0792
-3.3590 <s> either 0.3010
-3.3590 <s> eliza -0.2139
-3.3590 <s> england 0.6532
-3.3590 <s> english 0.0414
-3.3590 <s> enough 0.5441
-3.3590 <s> entertain 0.1761
-3.3590 <s> er 0.1761
-3.3590 <s> err 0.1761
-3.3590 <s> errr 0.1761
-3.3590 <s> euh 0.1761
-3.3590 <s> eukaryote 0.1761
-3.0580 <s> even 0.2430
-3.3590 <s> ever -0.2467
-3.0580 <s> every 0.2430
-3.3590 <s> everyday 0.1761
-3.3590 <s> everyone 0.1761
-3.1829 <s> everything 0.3680
-3.3590 <s> everywhere 0.1761
-3.3590 <s> exactement 0.1761
-3.3590 <s> excuse 0.1761
-3.3590 <s> expect 0.1761
-3.3590 <s> explain 0.3979
-3.3590 <s> explaining -0.0792
-3.3590 <s> explication -0.0792
-3.3590 <s> explorer 0.1761
-3.3590 <s> fair -0.0792
-3.3590 <s> falsch 0.1761
-3.3590 <s> far 0.1761
-3.3590 <s> fart 0.1761
-3.3590 <s> fascinating 0.1761
-3.3590 <s> faszinierend 0.1761
-3.3590 <s> feel -0.2499
-3.3590 <s> felicitation 0.1761
-3.3590 <s> felicitations 0.1761
-3.3590 <s> femelle 0.1761
-3.3590 <s> finally 0.1761
-3.1829 <s> fine 0.4771
-3.3590 <s> five 0.0000
-3.3590 <s> follow 0.1761
-3.3590 <s> football 0.4771
-2.7569 <s> for -0.5351
-3.3590 <s> forever 0.3010
-3.3590 <s> forget -0.1919
-3.3590 <s> forgive -0.0792
-3.3590 <s> fortunecity 0.1761
-3.3590 <s> frank 0.1761
-2.8819 <s> free 0.3358
-3.3590 <s> french 0.3010
-2.7569 <s> from -0.5673
-3.3590 <s> fu 0.1761
-2.8819 <s> fuck 0.3358
-3.3590 <s> fucker 0.3010
-3.3590 <s> fucking 0.3010
-3.3590 <s> gee 0.1761
-3.3590 <s> gemini 0.1761
-3.3590 <s> genau 0.1761
-3.3590 <s> geometry 0.1761
-3.1829 <s> george 0.2218
-3.0580 <s> get -0.4407
-3.3590 <s> gibs 0.1761
-3.3590 <s> girls 0.1761
-3.3590 <s> give -0.1249
-3.3590 <s> glad -0.0792
-3.3590 <s> global 0.1761
-2.5808 <s> go -0.2808
-3.3590 <s> gold 0.3979
-3.3590 <s> gone 0.1761
-3.3590 <s> goo 0.1761
-2.3590 <s> good -0.5761
-3.3590 <s> goodnight 0.1761
-3.3590 <s> goog 0.1761
-3.3590 <s> gosh 0.1761
-3.3590 <s> gossip -0.1919
-3.3590 <s> got -0.0792
-3.3590 <s> gotcha 0.1761
-3.1829 <s> gott 0.2218
-3.3590 <s> grand 0.1761
-3.3590 <s> grass -0.1549
-3.3590 <s> great 0.2218
-3.3590 <s> greed 0.1761
-3.3590 <s> greetings 0.1761
-3.3590 <s> grossartig 0.1761
-3.3590 <s> grr 0.1761
-3.3590 <s> grrr 0.1761
-3.3590 <s> gruselig 0.1761
-2.9610 <s> guess -0.2218
-3.3590 <s> h -0.0792
-3.3590 <s> ha -0.1249
-3.3590 <s> happy -0.1249
-3.3590 <s> harry -0.0792
-3.3590 <s> has -0.1919
-2.0166 <s> have -1.3887
-2.2798 <s> he -1.2041
-3.3590 <s> hear -0.2285
-3.1829 <s> hell 0.3680
-3.1829 <s> help 0.0458
-3.3590 <s> her -0.1549
-3.1829 <s> here 0.3680
-3.0580 <s> hey 0.2430
-3.0580 <s> hi 0.2430
-3.3590 <s> hier 0.3010
-3.3590 <s> high 0.1761
-3.3590 <s> him 0.3802
-3.3590 <s> himself 0.1761
-3.3590 <s> hip 0.1761
-3.3590 <s> hmm 0.1761
-3.3590 <s> hmmm 0.1761
-3.3590 <s> hmmmm 0.1761
-3.3590 <s> hmph 0.1761
-3.1829 <s> hola 0.2218
-3.3590 <s> holden 0.1761
-3.3590 <s> holding 0.1761
-3.3590 <s> home 0.5441
-3.3590 <s> homer -0.0792
-3.3590 <s> honestly 0.1761
-3.3590 <s> honey 0.1761
-3.3590 <s> hopefully 0.1761
-3.3590 <s> hot 0.1249
-1.3568 <s> how -0.7591
-3.3590 <s> hug 0.1761
-3.3590 <s> huge 0.1761
-3.1829 <s> huh 0.2218
-3.1829 <s> humans 0.0872
-3.3590 <s> hurry 0.1761
-0.9870 <s> i -1.9608
-3.3590 <s> ici 0.1761
-2.8149 <s> if -0.3680
-3.1829 <s> im 0.2218
-3.3590 <s> imho 0.1761
-3.3590 <s> immense 0.1761
-3.3590 <s> impossible 0.3979
-3.3590 <s> impressive 0.1761
-1.9788 <s> in -1.2075
-3.3590 <s> including 0.1761
-3.3590 <s> incroyable 0.1761
-3.3590 <s> indeed 0.1761
-3.3590 <s> init 0.1761
-3.3590 <s> intellect 0.3979
-3.3590 <s> intellegence 0.1761
-3.3590 <s> intelligenz 0.1761
-3.3590 <s> interessant 0.1761
-3.1829 <s> interessante -0.1761
-3.0580 <s> interesting 0.1513
-3.3590 <s> interressante 0.1761
-3.3590 <s> into -0.0792
-1.4641 <s> is -1.8943
-3.3590 <s> isaac 0.1761
-1.5047 <s> it -1.6523
-3.3590 <s> its -0.0792
-3.3590 <s> itself 0.1761
-3.3590 <s> japanese 0.1761
-3.3590 <s> japonais 0.1761
-3.3590 <s> jaune 0.1761
-3.3590 <s> jeans 0.1761
-3.3590 <s> jerk 0.4771
-3.3590 <s> john 0.3010
-3.3590 <s> jr 0.1761
-3.3590 <s> jules 0.1761
-3.3590 <s> jungfrau 0.1761
-3.3590 <s> jures 0.1761
-2.9610 <s> just -0.5229
-3.3590 <s> keywords 0.1761
-3.3590 <s> kimono 0.1761
-3.3590 <s> kind 0.4150
-3.3590 <s> kinder 0.1761
-3.1829 <s> kiss -0.1761
-3.3590 <s> kkk 0.1761
-3.3590 <s> knew -0.1919
-3.3590 <s> knock -0.0792
-3.3590 <s> kosovo 0.1761
-3.3590 <s> kraftwerk -0.1919
-3.3590 <s> ktwelve 0.1761
-3.3590 <s> lala 0.1761
-3.3590 <s> lalala 0.1761
-3.3590 <s> lalalala 0.1761
-3.3590 <s> lalalalala 0.1761
-2.9610 <s> last -0.3680
-3.3590 <s> late -0.0792
-3.3590 <s> later 0.3979
-3.3590 <s> lawyers -0.1249
-3.3590 <s> learn -0.1761
-3.3590 <s> leave -0.1919
-3.3590 <s> lehigh 0.3010
-3.3590 <s> leo 0.1761
-3.3590 <s> lesbian 0.1761
-3.3590 <s> lesbiene 0.1761
-3.3590 <s> lesbienne 0.1761
-2.2798 <s> let 0.0512
-3.3590 <s> lets 0.1761
-3.3590 <s> liar 0.1761
-3.3590 <s> liberated 0.1761
-2.9610 <s> life -0.2915
-2.8149 <s> like -0.8049
-3.3590 <s> liked -0.0792
-3.3590 <s> likewise 0.1761
-3.3590 <s> linus 0.1761
-3.0580 <s> linux 0.3979
-3.3590 <s> lion 0.1761
-3.3590 <s> listen 0.0000
-3.3590 <s> listening 0.3010
-3.3590 <s> liverpool 0.1761
-3.3590 <s> lol 0.1761
-3.3590 <s> long -0.2711
-3.3590 <s> look -0.1963
-3.3590 <s> lost -0.1549
-3.3590 <s> lots 0.1761
-3.3590 <s> love -0.1413
-3.3590 <s> lovely 0.1761
-3.3590 <s> m 0.1761
-3.3590 <s> ma 0.1761
-3.1829 <s> make -0.3979
-3.3590 <s> making -0.1919
-3.3590 <s> malaisie 0.1761
-3.3590 <s> malaysia 0.1761
-3.3590 <s> malaysie 0.1761
-3.3590 <s> mall 0.3010
-3.3590 <s> manchmal 0.1761
-3.3590 <s> manges 0.1761
-3.3590 <s> mangez 0.1761
-3.3590 <s> manufactured 0.1761
-2.9610 <s> many -0.5911
-3.3590 <s> married 0.1761
-3.3590 <s> mars 0.3979
-3.3590 <s> massive 0.1761
-3.3590 <s> masterbater 0.1761
-3.3590 <s> math 0.3010
-3.0580 <s> may -0.4058
-3.3590 <s> maybe 0.1761
-3.0580 <s> me -0.5882
-3.3590 <s> mechant 0.1761
-3.1829 <s> meme 0.2218
-3.3590 <s> memory 0.3010
-3.3590 <s> mention -0.0792
-3.3590 <s> mercedes 0.1761
-3.3590 <s> merry 0.1761
-3.3590 <s> meurt 0.1761
-3.3590 <s> michael 0.1761
-3.3590 <s> microsoft 0.3979
-3.3590 <s> mieux 0.3010
-3.3590 <s> mignon 0.1761
-3.3590 <s> mignonne 0.1761
-3.3590 <s> mignonnes 0.1761
-3.3590 <s> mignons 0.1761
-3.3590 <s> mike 0.3010
-3.1829 <s> mine -0.3174
-3.3590 <s> mineral 0.1761
-3.1829 <s> mir -0.2553
-3.1829 <s> moechtest 0.1249
-3.3590 <s> montre 0.1761
-3.1829 <s> montres 0.1249
-3.3590 <s> more -0.2632
-3.3590 <s> morgen 0.1761
-3.3590 <s> most -0.1549
-3.3590 <s> mother -0.2389
-3.3590 <s> movies 0.5441
-3.3590 <s> mozilla 0.1761
-3.3590 <s> music 0.3979
-1.9524 <s> my -1.2905
-3.3590 <s> myself 0.3979
-3.1829 <s> n 0.1249
-3.3590 <s> name -0.2798
-3.3590 <s> nationalite 0.1761
-3.3590 <s> natuerlich 0.1761
-3.3590 <s> nein 0.1761
-3.3590 <s> nenn 0.1761
-3.3590 <s> nenne 0.1761
-3.3590 <s> netscape 0.1761
-3.3590 <s> neutral 0.1761
-3.1829 <s> never -0.3590
-3.3590 <s> nevermind 0.1761
-3.1829 <s> new -0.3010
-3.1829 <s> next -0.0512
-2.6186 <s> nice -0.3329
-3.3590 <s> nichons 0.1761
-2.8819 <s> nicht -0.3010
-3.3590 <s> nichts 0.1761
-3.3590 <s> nie 0.1761
-3.3590 <s> niedlich 0.1761
-3.3590 <s> niemals 0.1761
-3.3590 <s> nightmares 0.1761
-3.3590 <s> nimmst 0.1761
-3.3590 <s> nine -0.2430
-3.3590 <s> nipple 0.1761
-3.3590 <s> nix 0.1761
-2.3813 <s> no -0.7827
-3.3590 <s> nobody 0.1761
-3.3590 <s> noch 0.1761
-2.9610 <s> none 0.2553
-3.3590 <s> nope 0.1761
-3.3590 <s> north 0.1761
-2.1037 <s> not -1.3756
-2.8819 <s> nothing 0.0235
-3.0580 <s> now 0.2430
-3.3590 <s> nowhere 0.1761
-3.3590 <s> nsa 0.1761
-3.3590 <s> number -0.1549
-3.1829 <s> nummer 0.2218
-3.3590 <s> o 0.1761
-3.3590 <s> obviously 0.1761
-3.3590 <s> oefters 0.1761
-3.1829 <s> of -0.4567
-3.3590 <s> offensichtlich 0.1761
-3.3590 <s> oft 0.1761
-3.3590 <s> often 0.0000
-3.3590 <s> oftmals 0.1761
-3.1829 <s> oh 0.2218
-3.3590 <s> ohio 0.1761
-3.3590 <s> ok -0.1249
-3.3590 <s> okay 0.3010
-2.5139 <s> on -0.7360
-3.3590 <s> onanieren 0.1761
-3.1829 <s> once 0.3010
-2.6186 <s> one -0.2052
-3.3590 <s> ones 0.3010
-3.1829 <s> only -0.2218
-3.3590 <s> oops 0.1761
-3.3590 <s> opera 0.4771
-3.3590 <s> opern 0.1761
-3.3590 <s> order 0.1761
-3.3590 <s> org 0.1761
-3.3590 <s> ouch 0.1761
-3.1829 <s> over -0.3174
-3.3590 <s> p 0.1761
-3.3590 <s> pandora 0.1761
-3.3590 <s> pants 0.1761
-3.3590 <s> peace 0.1761
-3.3590 <s> peanuts 0.1761
-3.3590 <s> peek 0.1761
-3.3590 <s> penis 0.3010
-3.1829 <s> people -0.2188
-3.3590 <s> perhaps 0.1761
-3.3590 <s> person 0.1761
-3.3590 <s> personality 0.3010
-3.3590 <s> persuade -0.1761
-3.3590 <s> petes 0.1761
-3.3590 <s> petez 0.1761
-3.3590 <s> peut -0.1549
-3.3590 <s> peux 0.1761
-3.3590 <s> philosophie 0.1761
-3.0580 <s> pick 0.1761
-3.3590 <s> piers 0.1761
-3.3590 <s> ping 0.1761
-3.3590 <s> pink 0.1761
-3.1829 <s> planet -0.1091
-3.0580 <s> please 0.3010
-3.3590 <s> pleased 0.1761
-3.3590 <s> plein 0.1761
-3.3590 <s> pleures 0.1761
-3.3590 <s> plus -0.2139
-3.3590 <s> plusieurs 0.1761
-3.3590 <s> poo 0.1761
-3.3590 <s> poop 0.1761
-3.3590 <s> poopoo 0.1761
-3.3590 <s> popo 0.1761
-3.3590 <s> poppen 0.1761
-3.3590 <s> porn 0.1761
-3.3590 <s> portes 0.1761
-3.3590 <s> portland 0.1761
-3.3590 <s> possibly 0.1761
-3.3590 <s> potato 0.1761
-3.3590 <s> practise -0.1249
-3.1829 <s> pretty -0.1091
-3.3590 <s> pries 0.1761
-3.1829 <s> probably 0.2218
-3.3590 <s> programming -0.0792
-3.3590 <s> prokaryote 0.1761
-3.3590 <s> promise 0.1761
-3.3590 <s> prove 0.1761
-3.3590 <s> purple 0.3010
-3.3590 <s> pussy 0.1761
-3.3590 <s> random 0.1761
-3.3590 <s> ray 0.1761
-3.3590 <s> real 0.2218
-3.3590 <s> really -0.1047
-3.3590 <s> red 0.0669
-3.3590 <s> regards 0.1761
-3.0580 <s> remember -0.0492
-3.3590 <s> repeat 0.1761
-3.3590 <s> resistance 0.1761
-3.3590 <s> respect 0.1761
-3.3590 <s> retard 0.1761
-3.3590 <s> return 0.1761
-3.3590 <s> reword 0.1761
-3.3590 <s> richtig 0.1761
-2.9610 <s> right 0.0792
-3.3590 <s> robin 0.1761
-3.3590 <s> rocky 0.1761
-3.3590 <s> rose 0.1761
-3.3590 <s> rti 0.1761
-3.3590 <s> rtwodtwo 0.1761
-3.3590 <s> s -0.2139
-3.3590 <s> saggitarius 0.1761
-3.3590 <s> salaud 0.1761
-3.3590 <s> salod 0.1761
-3.3590 <s> salope 0.1761
-3.3590 <s> salut 0.1761
-3.3590 <s> salutations 0.1761
-3.0580 <s> same 0.3979
-3.3590 <s> san 0.5441
-2.2621 <s> say -0.6990
-3.1829 <s> says 0.2218
-3.3590 <s> scary 0.3979
-3.3590 <s> schade 0.1761
-3.3590 <s> scheisse 0.1761
-3.3590 <s> schlaf 0.1761
-3.3590 <s> schlampe 0.1761
-3.3590 <s> schuetze 0.1761
-3.3590 <s> science -0.1249
-3.3590 <s> scorpio 0.1761
-3.3590 <s> scorpion 0.1761
-3.3590 <s> screw -0.0792
-3.1829 <s> se -0.1091
-2.9610 <s> see -0.5044
-3.3590 <s> seriously 0.1761
-3.3590 <s> seul 0.1761
-3.3590 <s> seule 0.1761
-3.3590 <s> several 0.1761
-2.4839 <s> she -0.6410
-3.3590 <s> sheesh 0.1761
-3.3590 <s> shirt 0.4771
-3.3590 <s> shit 0.6021
-3.3590 <s> shithead 0.1761
-3.3590 <s> shoes 0.3010
-3.3590 <s> short -0.0792
-2.6186 <s> should -0.7581
-2.8819 <s> show -0.3632
-3.3590 <s> shut 0.1761
-3.3590 <s> si 0.1761
-3.3590 <s> sida 0.1761
-3.3590 <s> sie 0.1761
-3.3590 <s> sigh 0.1761
-3.3590 <s> sign 0.3979
-3.3590 <s> signe 0.1761
-3.3590 <s> sing 0.1249
-3.1829 <s> sixty 0.3010
-3.3590 <s> skorpion 0.1761
-3.3590 <s> slow 0.1761
-3.3590 <s> slut 0.1761
-3.3590 <s> smart -0.2341
-3.3590 <s> snow 0.1761
-2.9610 <s> so -0.5932
-3.3590 <s> some -0.1761
-3.3590 <s> someone -0.0792
-3.1829 <s> something 0.6690
-3.3590 <s> sometimes 0.3010
-3.3590 <s> somewhere 0.1761
-3.1829 <s> soon 0.3680
-3.3590 <s> sorry 0.0669
-3.3590 <s> sort 0.1761
-3.3590 <s> sounds 0.0000
-3.3590 <s> south 0.1761
-3.3590 <s> southern 0.1761
-3.1829 <s> soyez 0.2218
-3.3590 <s> spanish 0.3010
-3.3590 <s> speak -0.1120
-3.3590 <s> stanislaw 0.1761
-2.8819 <s> star 0.5441
-3.3590 <s> starship 0.8129
-3.1829 <s> start -0.1091
-3.3590 <s> steinbock 0.1761
-3.3590 <s> stier 0.1761
-2.7569 <s> stop 0.3010
-3.3590 <s> stoppe 0.1761
-3.3590 <s> stuff 0.3010
-3.3590 <s> stupid 0.3010
-3.3590 <s> stupidity 0.1761
-3.3590 <s> submit 0.1761
-3.3590 <s> subst 0.1761
-3.3590 <s> such 0.1761
-3.3590 <s> sucker 0.1761
-3.3590 <s> supermarket 0.1761
-3.3590 <s> surprisingly 0.1761
-2.7569 <s> take -0.2499
-3.0580 <s> talk -0.3126
-3.3590 <s> talking 0.2430
-3.3590 <s> tant 0.1761
-3.3590 <s> taureau 0.1761
-3.3590 <s> taurus 0.1761
-3.3590 <s> television 0.1761
-2.1829 <s> tell -0.8004
-3.1829 <s> terminator 0.3010
-3.1829 <s> test -0.0512
-3.3590 <s> tete 0.1761
-3.1829 <s> thank 0.3010
-3.3590 <s> thanks 0.3010
-1.5918 <s> that -1.8042
-2.0472 <s> the -1.4544
-2.9610 <s> then -0.2218
-2.7058 <s> there -0.3770
-2.4047 <s> they -0.8186
-3.1829 <s> think -0.2583
-3.3590 <s> thinking 0.1249
-3.1829 <s> thirty -0.1091
-2.6600 <s> this -0.8674
-3.3590 <s> three 0.1249
-3.3590 <s> through 0.1761
-2.8149 <s> time -0.1339
-3.3590 <s> titanic 0.1761
-3.3590 <s> titten 0.1761
-3.0580 <s> to -0.5755
-3.3590 <s> today 0.1761
-3.3590 <s> together 0.1761
-3.0580 <s> toi -0.1249
-3.3590 <s> told -0.0872
-3.3590 <s> tomate 0.1761
-3.3590 <s> tomato 0.1761
-3.3590 <s> tomorrow 0.3010
-2.8819 <s> ton 0.2218
-3.3590 <s> tonight 0.3010
-2.8819 <s> too -0.5119
-3.3590 <s> toujours 0.1761
-3.3590 <s> tourbus 0.1761
-3.3590 <s> trust -0.0792
-2.8149 <s> try -0.0669
-3.3590 <s> tschuess 0.1761
-3.3590 <s> turn -0.2139
-3.3590 <s> tv 0.0669
-3.3590 <s> twice 0.1761
-2.5808 <s> two 0.3522
-3.3590 <s> ueber 0.1761
-3.3590 <s> ugh 0.1761
-3.3590 <s> undrestand 0.1761
-3.3590 <s> united 0.1761
-3.3590 <s> unterhalte 0.1761
-3.1829 <s> up -0.3259
-3.3590 <s> us -0.2762
-3.3590 <s> usatoday 0.1761
-3.3590 <s> usually 0.3010
-3.3590 <s> version 0.1761
-2.7569 <s> very -0.2403
-3.3590 <s> veteranarian 0.1761
-3.3590 <s> vie 0.3010
-3.3590 <s> vierge 0.1761
-3.3590 <s> vit 0.1761
-3.3590 <s> von 0.1761
-3.3590 <s> votre 0.1761
-3.3590 <s> voyager 0.1249
-3.3590 <s> voyages 0.1761
-3.1829 <s> wait 0.4771
-3.3590 <s> waiting 0.4771
-3.3590 <s> wake 0.1761
-3.3590 <s> wann 0.1761
-3.3590 <s> want 0.0843
-3.3590 <s> war -0.0792
-3.1829 <s> was -0.4546
-3.0580 <s> way 0.0969
-2.1976 <s> we -1.0215
-3.1829 <s> weird -0.1091
-3.3590 <s> welcome 0.1761
-2.9610 <s> well 0.4472
-3.3590 <s> wells 0.1761
-3.3590 <s> were -0.2700
-1.2238 <s> what -1.2177
-3.3590 <s> whatever 0.1761
-2.1976 <s> when -0.2768
-3.3590 <s> whenever 0.1761
-1.9698 <s> where -0.7811
-2.5461 <s> which -0.1761
-3.3590 <s> white 0.3979
-1.7569 <s> who -0.6654
-3.3590 <s> whoa 0.1761
-3.3590 <s> whoops 0.1761
-3.3590 <s> whore 0.1761
-3.3590 <s> whose 0.1761
-1.6915 <s> why 0.1353
-3.3590 <s> widder 0.1761
-2.5808 <s> will -0.9427
-3.3590 <s> william 0.1761
-3.3590 <s> winning -0.0792
-3.0580 <s> with -0.4771
-3.3590 <s> without -0.0792
-3.3590 <s> wonderland 0.1761
-2.5461 <s> would -0.8787
-3.3590 <s> wow 0.1761
-3.1829 <s> wrong 0.1597
-3.3590 <s> wtf 0.1761
-3.3590 <s> www 0.1761
-3.3590 <s> yadda 0.0000
-3.3590 <s> yellow 0.3010
-2.5461 <s> yes -0.4150
-3.3590 <s> yesterday 0.4771
-3.1829 <s> yo 0.2218
-1.3378 <s> you -2.0181
-2.2286 <s> your -1.2788
-3.3590 <s> youre 0.1761
-3.3590 <s> yourself 0.2218
-3.3590 <s> yummy -0.2095
-2.3493 a </s> 3.2737
-2.3493 a asshole 0.3010
-2.3493 a b 0.1761
-2.1732 a bad 0.1461
-2.3493 a bailiff 0.1761
-2.3493 a beautiful -0.1761
-2.3493 a bike 0.1761
-2.3493 a bird 0.1761
-2.3493 a bit 0.3010
-2.3493 a bloke 0.1761
-2.3493 a boo 0.0000
-1.8052 a book -0.1761
-2.3493 a bot 0.3010
-2.3493 a botmaster 0.1761
-2.3493 a boy -0.0792
-1.9513 a boyfriend -0.1871
-2.1732 a brain 0.4771
-2.3493 a bug 0.1761
-2.3493 a c -0.2041
-2.3493 a camera 0.1761
-2.3493 a car 0.4771
-2.3493 a chair 0.3010
-2.3493 a chat -0.1549
-2.3493 a chinese 0.1761
-2.3493 a cigarette 0.1761
-2.3493 a clark 0.3010
-2.3493 a client 0.1761
-2.1732 a clock 0.2218
-2.3493 a coffee 0.1761
-2.1732 a coincidence 0.1249
-2.3493 a coke 0.1761
-2.3493 a color -0.2358
-2.1732 a compliment 0.2218
-1.5364 a computer 0.2478
-2.3493 a cop 0.1761
-2.3493 a copy 0.1761
-2.3493 a country 0.3979
-2.3493 a cray 0.1761
-2.3493 a crow 0.1761
-2.3493 a day 0.0580
-2.3493 a dead -0.1919
-2.3493 a different -0.1761
-2.3493 a dirty 0.1761
-2.3493 a dog -0.0969
-2.3493 a donation 0.1761
-2.3493 a dream 0.1249
-2.3493 a drink -0.0792
-2.3493 a eliza 0.2632
-2.0482 a fact 0.1761
-2.0482 a female 0.3979
-2.1732 a few 0.2218
-2.1732 a figure 0.1249
-2.3493 a film 0.1761
-2.1732 a friend 0.1597
-2.3493 a frog 0.1761
-2.3493 a fun -0.2341
-2.3493 a funny -0.2341
-1.8722 a game -0.1091
-2.1732 a girl 0.2218
-2.0482 a girlfriend -0.1249
-2.3493 a goat 0.1761
-1.8052 a good -0.7466
-2.3493 a groovy 0.1761
-2.3493 a guess -0.0928
-2.3493 a happier 0.1761
-2.3493 a heart 0.1761
-2.3493 a hermaphrodite 0.1761
-2.3493 a hoax 0.1761
-2.3493 a hospital -0.0792
-2.3493 a house 0.3979
-2.0482 a human -0.0792
-2.0482 a i -0.5908
-2.0482 a jerk 0.1761
-2.3493 a job 0.1761
-1.8052 a joke 0.1549
-2.3493 a kamikaze 0.1761
-2.3493 a kid 0.1761
-2.3493 a kite 0.1761
-2.3493 a lawyer 0.1761
-2.3493 a letter 0.1761
-2.1732 a lie 0.5229
-2.1732 a life -0.2615
-2.3493 a like -0.2913
-2.3493 a link 0.1761
-1.9513 a little 0.2553
-2.0482 a long -0.5399
-1.8052 a lot 0.1091
-2.3493 a love -0.2285
-2.1732 a magazine 0.1249
-2.3493 a maid 0.1761
-2.0482 a male 0.2430
-2.3493 a mammal 0.1761
-1.8722 a man 0.2218
-2.3493 a manhattan 0.1761
-2.3493 a mantra 0.1761
-2.3493 a martini 0.1761
-2.3493 a matter -0.1919
-2.3493 a meal 0.1761
-2.3493 a mile 0.1761
-2.3493 a mind 0.1761
-2.1732 a minute 0.1249
-2.3493 a mistake 0.1761
-2.0482 a moment 0.0969
-2.3493 a mother -0.0792
-2.1732 a movie -0.1584
-2.3493 a musical 0.1761
-2.3493 a new -0.2218
-1.9513 a nice -0.6044
-2.3493 a number -0.1549
-2.3493 a paradox 0.1761
-2.3493 a pediatrician 0.1761
-2.0482 a person 0.3522
-2.3493 a personal -0.0792
-2.3493 a ph 0.1761
-2.1732 a picture 0.3680
-2.1732 a piece 0.1249
-2.3493 a pin 0.1761
-2.3493 a pity 0.1761
-2.3493 a plumber 0.1761
-2.1732 a plus -0.2808
-2.3493 a point 0.3979
-2.3493 a pound 0.1761
-2.3493 a prize 0.3010
-2.0482 a problem 0.3010
-2.3493 a producer 0.1761
-2.3493 a professor 0.1761
-2.3493 a program 0.0414
-2.3493 a programmer 0.1761
-2.3493 a proposition 0.1761
-2.3493 a proverb 0.1761
-1.5711 a question 0.3680
-2.3493 a real -0.2041
-2.0482 a riddle 0.0969
-2.3493 a room 0.4771
-2.3493 a ruby 0.1761
-2.3493 a rumor 0.1761
-2.3493 a s -0.2139
-2.3493 a sandwich 0.1761
-2.1732 a secret 0.2218
-2.3493 a shame 0.1761
-2.1732 a she -0.3979
-2.3493 a shirt 0.4771
-2.3493 a simulation 0.1761
-2.3493 a sister 0.0669
-2.3493 a smart -0.2341
-2.3493 a smile 0.1761
-2.3493 a song 0.6021
-2.3493 a sound -0.2467
-2.3493 a sport 0.3979
-2.3493 a statement 0.1761
-2.3493 a story 0.6021
-2.3493 a street 0.1761
-2.0482 a student 0.1761
-2.3493 a sweatshirt 0.1761
-2.3493 a teacher 0.3010
-2.3493 a tennis -0.0792
-2.3493 a test -0.0969
-2.1732 a thing -0.0621
-2.3493 a threat 0.1761
-2.1732 a time -0.1996
-2.3493 a toi -0.1919
-2.1732 a topic 0.4260
-2.3493 a typo 0.1761
-2.3493 a virgin 0.1761
-2.3493 a walk 0.4771
-2.3493 a way 0.0300
-2.3493 a while 0.1761
-2.0482 a woman 0.0969
-2.3493 a year 0.0669
-0.3979 abba </s> 3.2737
-0.3979 abba from -0.1165
-0.1761 abc </s> 3.2737
-0.3979 aber </s> 3.2737
-0.3979 aber was -0.2785
-0.1761 aboie </s> 3.2737
-0.1761 aboies </s> 3.2737
-0.1761 abord </s> 3.2737
-1.0969 about </s> 2.6716
-1.3979 about a -0.5922
-1.6990 about apples 0.5441
-1.6990 about area 0.1761
-1.6990 about child -0.0792
-1.6990 about computers -0.1761
-1.6990 about dogs 0.0000
-1.6990 about football 0.4771
-1.6990 about gold 0.3979
-1.6990 about him 0.3802
-1.0000 about it -0.9139
-1.6990 about kraftwerk -0.0458
-1.0458 about me -0.6370
-1.6990 about my -0.2948
-1.6990 about parallel 0.1761
-1.6990 about poland 0.3010
-1.6990 about setl 0.1761
-1.6990 about some -0.1761
-1.3979 about something 0.5441
-1.6990 about sport 0.3979
-1.5229 about sports 0.3680
-1.6990 about star 0.2430
-1.6990 about that -0.2266
-1.5229 about them 0.4260
-1.6990 about tomatoes 0.1761
-1.6990 about two -0.2499
-1.6990 about us -0.2762
-1.6990 about want -0.2656
-1.5229 about what -0.3939
-1.1549 about you -0.7724
-1.3979 about your -0.5772
-1.6990 about yourself 0.2218
-0.1761 above </s> 3.2737
-0.1761 absolutely </s> 3.2737
-0.1761 absolutes </s> 3.2737
-0.1761 absorbing </s> 3.2737
-0.1761 abusive </s> 3.2737
-0.1761 ach </s> 3.2737
-0.1761 achievement </s> 3.2737
-0.1761 achoo </s> 3.2737
-0.1761 ack </s> 3.2737
-0.1761 act very -0.2615
-0.1761 action </s> 3.2737
-0.1761 activate the -0.2923
-0.1761 activated you -0.2283
-0.1761 actors in -0.2907
-0.3010 actually </s> 3.0976
-0.4771 actually i -0.2342
-0.1761 adams </s> 3.2737
-0.1761 address </s> 3.2737
-0.1761 adidas </s> 3.2737
-0.3979 admit </s> 3.2737
-0.3979 admit it -0.2149
-0.1761 adresse </s> 3.2737
-0.1761 advanced </s> 3.2737
-0.1761 advantages </s> 3.2737
-0.1761 advertising </s> 3.2737
-0.1249 advice </s> 3.0976
-0.1761 affen </s> 3.2737
-0.5441 after </s> 3.2737
-0.5441 after i -0.2996
-0.5441 after me 0.0162
-0.1761 afternoon </s> 3.2737
-0.1761 again </s> 3.2737
-0.1761 age </s> 3.2737
-0.0969 ago </s> 2.9727
-0.2688 agree </s> 2.7296
-0.8129 agree to -0.2967
-0.6368 agree with -0.3358
-0.3979 ah </s> 3.2737
-0.3979 ah ha 0.0000
-0.1761 aha </s> 3.2737
-0.1249 ahead </s> 3.0976
-0.1761 ahem </s> 3.2737
-0.1761 ahhh </s> 3.2737
-0.1761 ahoy </s> 3.2737
-0.3522 ai </s> 2.9727
-0.6532 ai a -0.2981
-0.6532 ai about -0.2648
-0.1761 aids </s> 3.2737
-0.3010 aiml </s> 3.0976
-0.4771 aiml stand 0.6990
-0.3010 airplanes </s> 3.0976
-0.4771 airplanes invented 0.5441
-0.1761 album </s> 3.2737
-0.1249 algebra </s> 3.0976
-0.1761 algorithms </s> 3.2737
-0.1761 alice </s> 3.2737
-0.1761 alicebot </s> 3.2737
-0.0969 aliens </s> 2.9727
-0.1761 alike </s> 3.2737
-0.8792 all </s> 2.7296
-1.4232 all computers -0.2553
-1.2472 all day -0.1181
-1.4232 all died 0.7404
-1.4232 all different -0.0969
-1.4232 all else -0.2648
-1.4232 all going 0.0414
-1.4232 all i -0.2962
-1.4232 all it -0.2149
-1.4232 all kinds 0.3010
-1.4232 all mine -0.0322
-1.4232 all night 0.4771
-1.2472 all of -0.4609
-1.2472 all over -0.2083
-1.4232 all pets -0.1249
-1.4232 all right 0.0000
-1.4232 all roads 0.1761
-1.0253 all the -0.6843
-1.0253 all you -0.6622
-0.1761 alles </s> 3.2737
-0.1761 alligator </s> 3.2737
-0.1761 allowed to -0.2967
-0.1761 almost </s> 3.2737
-0.1249 alone </s> 3.0976
-0.1761 alot </s> 3.2737
-0.8016 already are -0.4505
-0.8016 already asked -0.2398
-0.9777 already has -0.0458
-0.9777 already have -0.2522
-0.6767 already know -0.4577
-0.6767 already told 0.6532
-0.3010 alright </s> 3.0976
-0.4771 alright then -0.1761
-0.3979 alrighty </s> 3.2737
-0.3979 alrighty then -0.1761
-0.1761 also </s> 3.2737
-0.1761 altavista </s> 3.2737
-0.4393 always </s> 2.9727
-0.7404 always agree 0.0348
-0.7404 always right 0.0000
-0.7404 always win -0.0969
-1.1761 am </s> 2.8758
-1.1761 am a -0.6911
-1.3979 am asking -0.1761
-1.5740 am downloading 0.1761
-0.1192 am i -1.7051
-1.5740 am not -0.2614
-0.1249 amazing </s> 3.0976
-0.1761 amen </s> 3.2737
-0.1549 america </s> 2.7296
-0.6990 america online 0.1761
-0.6532 american </s> 3.2737
-0.6532 american beauty 0.1761
-0.6532 american in -0.2907
-0.6532 american pie 0.1761
-0.1761 amerique du -0.2139
-0.1761 ammo </s> 3.2737
-0.1761 amnesia </s> 3.2737
-1.1903 an android 0.1761
-1.1903 an answer -0.0158
-1.1903 an arrow 0.1761
-0.8893 an artificial -0.3912
-1.1903 an atom 0.1761
-1.1903 an attitude 0.1761
-1.1903 an computer 0.3617
-1.1903 an easy -0.1549
-1.1903 an echo 0.1761
-1.1903 an eliza 0.2632
-1.1903 an expression 0.1761
-1.1903 an idiot 0.3979
-1.1903 an interesting -0.2467
-1.1903 an opera 0.4771
-0.1761 anachist cook -0.1249
-0.1761 anal </s> 3.2737
-1.3802 and </s> 3.2737
-1.3802 and eighty -0.0792
-1.3802 and eleven 0.1761
-1.2041 and fifty -0.1091
-1.3802 and i -0.2907
-0.9031 and me -0.4609
-1.3802 and nine -0.1383
-0.9823 and ninety 0.2041
-1.2041 and one -0.2430
-1.3802 and seventy 0.1761
-1.3802 and sixty 0.0000
-1.3802 and ten 0.3010
-1.3802 and twelve 0.1761
-1.2041 and twenty 0.3680
-1.2041 and what -0.3751
-1.3802 and you -0.2283
-1.3802 and yours 0.6532
-1.3802 and yourself 0.2218
-0.1761 android </s> 3.2737
-0.1761 androids dream -0.1761
-0.1761 angelfire </s> 3.2737
-0.1761 anger </s> 3.2737
-0.1761 angleterre </s> 3.2737
-0.0969 angry </s> 2.9727
-0.1761 animal </s> 3.2737
-0.1761 animals </s> 3.2737
-0.1761 anne mccaffrey 0.1761
-0.1761 annoying </s> 3.2737
-0.1761 anonymousnewuser </s> 3.2737
-0.1761 anonymousreturninguser </s> 3.2737
-0.6368 another </s> 3.0976
-0.8129 another joke 0.6990
-0.8129 another one -0.0669
-0.6368 another question 0.9700
-0.8129 another story 0.6021
-0.3174 answer </s> 2.4608
-1.1303 answer it -0.2149
-0.9542 answer me -0.1599
-1.1303 answer mine -0.2285
-0.9542 answer my -0.4708
-0.9542 answer the -0.4698
-0.1761 answers </s> 3.2737
-0.1761 answewrs </s> 3.2737
-0.1761 anthony </s> 3.2737
-1.0414 any </s> 3.0976
-1.2175 any aliens 0.3979
-1.2175 any books 0.3358
-1.2175 any clones 0.1761
-1.2175 any friends 0.2632
-1.2175 any fuzzy 0.1761
-1.0414 any more -0.3274
-1.2175 any murderers 0.1761
-1.2175 any of -0.2806
-1.0414 any other -0.3424
-1.0414 any sense 0.2218
-1.2175 any songs 0.0669
-1.2175 any stories 0.1761
-1.2175 any what -0.2178
-0.1761 anybody home 0.5441
-0.1761 anymore </s> 3.2737
-0.7404 anyone </s> 3.2737
-0.7404 anyone else -0.1072
-0.7404 anyone here 0.3222
-0.7404 anyone interesting 0.0843
-0.7404 anyone think -0.1383
-0.3979 anything </s> 2.6716
-0.8239 anything about -0.4265
-1.0000 anything else -0.1072
-1.0000 anything once 0.0000
-1.0000 anything possible 0.4771
-1.0000 anything you -0.2873
-0.3979 anytime </s> 3.2737
-0.3979 anytime babe 0.1761
-0.1249 anyway </s> 3.0976
-0.1761 anyways </s> 3.2737
-0.1761 anywhere </s> 3.2737
-0.1761 aoeu </s> 3.2737
-0.1761 aol </s> 3.2737
-0.1761 apes </s> 3.2737
-0.1249 apologize </s> 3.0976
-0.0669 apples </s> 2.7966
-0.1761 applet </s> 3.2737
-0.1761 applied </s> 3.2737
-0.1761 apres </s> 3.2737
-0.1761 archives </s> 3.2737
-1.2262 are </s> 2.4955
-2.0043 are a -0.2882
-2.0043 are aliens 0.3979
-1.8282 are all -0.4430
-2.0043 are an -0.2410
-2.0043 are annoying 0.1761
-2.0043 are apples 0.5441
-2.0043 are bananas 0.1761
-2.0043 are better -0.0969
-2.0043 are blue 0.2218
-2.0043 are borg 0.1761
-2.0043 are brown 0.1761
-2.0043 are busy 0.3010
-2.0043 are but 0.0000
-2.0043 are clients 0.3979
-2.0043 are cows 0.1761
-2.0043 are elephant 0.1761
-2.0043 are friends 0.2632
-2.0043 are going 0.0414
-2.0043 are green 0.2632
-2.0043 are hospital -0.0792
-2.0043 are humans -0.2139
-2.0043 are immortal 0.5441
-2.0043 are killed -0.1919
-2.0043 are lemons 0.1761
-2.0043 are mammals 0.3010
-2.0043 are men 0.1761
-2.0043 are microchips 0.1761
-1.8282 are my -0.4580
-1.8282 are no -0.4385
-2.0043 are none -0.1249
-1.3511 are not -0.8820
-2.0043 are oranges 0.1761
-2.0043 are parameters 0.1761
-2.0043 are people -0.2700
-2.0043 are plants 0.1761
-2.0043 are purple 0.3010
-2.0043 are secret 0.3979
-2.0043 are shiny 0.1761
-2.0043 are stupid 0.3010
-2.0043 are talking 0.2430
-1.7033 are the -0.5918
-2.0043 are their -0.0792
-2.0043 are there -0.0483
-1.5272 are they -0.6839
-2.0043 are trees 0.1761
-1.7033 are we -0.5626
-2.0043 are what -0.2178
-2.0043 are wrong 0.1139
-0.5200 are you -1.6602
-1.2262 are your -1.0303
-2.0043 are yours 0.6532
-0.1761 area fifty -0.1549
-0.1761 argh </s> 3.2737
-0.1761 argue with -0.2071
-0.1761 aries </s> 3.2737
-0.3979 arms </s> 3.2737
-0.3979 arms do -0.1182
-0.1761 arrow </s> 3.2737
-0.1761 arsch </s> 3.2737
-0.1761 arschloch </s> 3.2737
-0.1761 arse </s> 3.2737
-0.1249 art </s> 3.0976
-0.1761 arthur c -0.2041
-0.4150 artificial </s> 2.8758
-0.8129 artificial intelligence 0.1761
-0.8129 artificial life -0.2615
-0.6368 artificial linguistic 0.1249
-0.7404 as </s> 3.2737
-0.7404 as a -0.2991
-0.7404 as always -0.1047
-0.7404 as smart -0.2341
-0.7404 as you -0.2283
-0.1249 ashbury </s> 3.0976
-0.1249 asimov </s> 3.0976
-0.6990 ask </s> 2.6205
-1.3522 ask another -0.1871
-0.9542 ask him 0.2041
-1.3522 ask jeeves 0.1761
-0.5393 ask me -0.6391
-1.3522 ask questions 0.5441
-1.3522 ask what -0.2178
-1.3522 ask who -0.2789
-0.8081 ask you -0.7609
-0.6767 asked </s> 2.9727
-0.5006 asked me -0.3484
-0.9777 asked that -0.2266
-0.5006 asked you -0.6982
-0.4771 asking </s> 3.2737
-0.3010 asking you -0.4044
-0.1761 asleep </s> 3.2737
-0.0669 ass </s> 2.7966
-0.1249 asshole </s> 3.0976
-0.1761 assimilated </s> 3.2737
-0.1761 asssimilated </s> 3.2737
-0.1761 assume </s> 3.2737
-0.1761 assuming </s> 3.2737
-0.1761 astonished </s> 3.2737
-0.1761 astrological sign 0.3979
-1.0544 at </s> 3.0976
-1.2304 at a -0.2981
-0.9294 at all -0.5405
-1.2304 at ease 0.1761
-1.2304 at home 0.5441
-1.2304 at lehigh 0.3010
-1.2304 at my -0.2948
-1.2304 at one -0.2825
-1.2304 at school 0.6532
-0.9294 at the -0.5918
-1.2304 at times 0.3979
-1.2304 at what -0.2178
-1.2304 at work 0.1091
-1.2304 at you -0.2283
-0.1761 atcha </s> 3.2737
-0.1761 atchoum </s> 3.2737
-0.1761 atom </s> 3.2737
-0.1761 attitude </s> 3.2737
-0.1761 attractive </s> 3.2737
-0.1761 auch </s> 3.2737
-0.1761 aussi </s> 3.2737
-0.1761 austin powers 0.1761
-0.1761 autant que 0.1761
-0.1761 autobahn </s> 3.2737
-0.1761 automobile company 0.1761
-0.1761 aux pays -0.0792
-0.1761 available </s> 3.2737
-0.1761 avant ca 0.0000
-0.1761 away </s> 3.2737
-0.1249 awesome </s> 3.0976
-0.1761 awnser </s> 3.2737
-0.1761 aww </s> 3.2737
-0.1761 axiomatic </s> 3.2737
-0.3979 ayuh </s> 3.2737
-0.3979 ayuh mean -0.1549
-0.1761 b c -0.1461
-0.1761 babe </s> 3.2737
-0.3979 babies </s> 3.2737
-0.3979 babies come 0.1249
-0.1761 baby </s> 3.2737
-0.5229 back </s> 3.0976
-0.6990 back at -0.2747
-0.6990 back hurts 0.3010
-0.6990 back when -0.2511
-0.1761 backpack </s> 3.2737
-0.1761 bad </s> 2.4286
-1.0212 bad answer -0.0158
-1.0212 bad if 0.0300
-1.0212 bad joke 0.6990
-0.1249 badly </s> 3.0976
-0.1761 bah </s> 3.2737
-0.1761 bailiff </s> 3.2737
-0.1761 baisons </s> 3.2737
-0.1761 balance </s> 3.2737
-0.3979 balls itch 0.1761
-0.3979 balls make -0.1963
-0.1761 bananas </s> 3.2737
-0.1761 bark </s> 3.2737
-0.1249 barry your -0.4607
-0.1761 bas </s> 3.2737
-0.1761 basic </s> 3.2737
-0.1761 basis </s> 3.2737
-0.1761 bayern </s> 3.2737
-0.1761 bcn </s> 3.2737
-1.0212 be </s> 2.6716
-1.2253 be a -0.6801
-1.6232 be angry 0.3979
-1.6232 be assimilated 0.1761
-1.6232 be asssimilated 0.1761
-1.6232 be astonished 0.1761
-1.6232 be back -0.1461
-1.6232 be careful 0.1761
-1.6232 be correct 0.3979
-1.6232 be defined 0.1761
-1.6232 be difficult 0.3010
-1.6232 be going -0.1047
-1.6232 be good -0.1612
-1.6232 be happy 0.0000
-1.6232 be honest 0.1761
-1.6232 be human 0.2218
-1.6232 be immortal 0.5441
-1.6232 be more -0.2632
-1.2253 be my -0.6689
-1.6232 be or -0.2553
-1.6232 be patient 0.1761
-1.6232 be precise 0.1761
-1.6232 be quiet 0.1761
-1.6232 be right -0.2499
-1.6232 be sarcastic 0.3010
-1.6232 be serious 0.1761
-1.6232 be smart 0.0000
-1.6232 be sorry 0.0669
-1.6232 be specific 0.3010
-1.6232 be sure -0.0902
-1.6232 be that -0.2980
-1.6232 be the -0.2967
-1.6232 be well 0.0000
-1.6232 be what -0.2178
-1.4472 be your -0.4607
-0.1761 beacuse </s> 3.2737
-0.1761 beans </s> 3.2737
-0.1249 beatles </s> 3.0976
-0.2041 beautiful </s> 2.8758
-0.6021 beautiful country 0.3979
-0.1761 beauty </s> 3.2737
-0.1761 beavis </s> 3.2737
-0.6021 because </s> 3.2737
-0.4260 because i -0.4628
-0.6021 because you -0.2936
-0.4771 become a -0.2991
-0.3010 become smarter 0.4771
-0.2430 bed </s> 2.9727
-0.5441 bed with -0.2071
-1.0280 been </s> 3.0976
-1.2041 been busy 0.3010
-1.0280 been doing -0.2553
-1.2041 been drinking 0.1761
-1.2041 been talking -0.1963
-1.2041 been there -0.0483
-1.2041 been thinking 0.1249
-0.5509 been to -0.9184
-1.2041 been up -0.2467
-0.9031 been waiting 0.1761
-0.1761 beer </s> 3.2737
-0.1761 before </s> 2.5747
-0.8751 before that -0.2266
-0.8751 before yesterday 0.4771
-0.3010 begin </s> 3.0976
-0.4771 begin explaining -0.0792
-0.1761 behavior </s> 3.2737
-0.1761 behaviour </s> 3.2737
-0.1761 behind you -0.2283
-0.4393 being a -0.5872
-0.7404 being sarcastic 0.3010
-0.7404 being single 0.3010
-0.7404 being stupid 0.3010
-0.9542 believe </s> 3.2737
-0.9542 believe it -0.2149
-0.7782 believe me -0.1599
-0.9542 believe so -0.0550
-0.9542 believe that -0.2266
-0.9542 believe what -0.2178
-0.6532 believe you -0.5294
-0.1761 belive you -0.2283
-0.1761 belong </s> 3.2737
-0.1761 below </s> 3.2737
-0.1761 bend over -0.1413
-0.1761 beni </s> 3.2737
-0.1761 benie </s> 3.2737
-0.1761 benz </s> 3.2737
-0.1761 best friend 0.3358
-0.1249 bet </s> 3.0976
-0.3010 better </s> 2.9727
-0.4260 better than -0.2852
-0.1761 between what -0.2178
-0.1761 bh </s> 3.2737
-0.1761 bi </s> 3.2737
-0.1761 bidding </s> 3.2737
-0.1761 bien </s> 3.2737
-0.6284 big </s> 2.9727
-0.9294 big boobs 0.3010
-0.9294 big daddy 0.1761
-0.9294 big deal 0.1761
-0.4523 big is -0.7214
-0.1761 bigger </s> 3.2737
-0.1761 bike </s> 3.2737
-0.3010 bill clinton 0.2218
-0.4771 bill gates 0.1761
-0.1761 biologically </s> 3.2737
-0.1761 biologie </s> 3.2737
-0.1761 biology </s> 3.2737
-0.1761 bird </s> 3.2737
-0.1761 birds sing 0.1249
-0.3979 birthday </s> 3.2737
-0.3979 birthday is -0.2815
-0.1761 bismol liquid 0.1761
-0.1249 bit </s> 3.0976
-0.1761 bitch </s> 3.2737
-0.1761 blab </s> 3.2737
-0.1761 black a -0.2991
-0.1761 blade runner 0.1761
-0.1761 blah </s> 3.2737
-0.1761 blame you -0.2283
-0.1761 blanc </s> 3.2737
-0.1761 bless you -0.2283
-0.1761 bleu </s> 3.2737
-0.1761 blink </s> 3.2737
-0.1761 bloke </s> 3.2737
-0.1549 blue </s> 2.7296
-0.6990 blue car 0.4771
-0.1761 bob a -0.2991
-0.1249 bollocks </s> 3.0976
-0.1761 bono mean -0.1549
-0.3010 boo </s> 3.0976
-0.4771 boo hoo 0.1761
-0.1249 boobs </s> 3.0976
-0.1919 book </s> 2.6205
-0.8451 book can -0.2946
-0.8451 book you -0.2967
-0.1139 books </s> 2.5747
-0.8129 books do -0.1182
-0.1761 borg </s> 3.2737
-0.1919 boring </s> 2.6205
-0.8451 boring to -0.2879
-0.8451 boring you -0.2283
-0.5441 born </s> 3.2737
-0.5441 born here 0.3222
-0.5441 born with -0.2632
-0.1761 borrow mine -0.0322
-0.1761 boston </s> 3.2737
-0.1249 bot </s> 3.0976
-0.1761 both </s> 3.2737
-0.1249 bother </s> 3.0976
-0.1761 botmaster </s> 3.2737
-0.1249 bowl </s> 3.0976
-0.1761 box </s> 3.2737
-0.3979 boy </s> 3.2737
-0.3979 boy or -0.1761
-0.1597 boyfriend </s> 2.6205
-0.6368 boyfriend is -0.4245
-0.1761 bra </s> 3.2737
-0.1249 bradbury </s> 3.0976
-0.0512 brain </s> 2.6716
-0.1761 bravo </s> 3.2737
-0.1761 brazil </s> 3.2737
-0.1761 brb </s> 3.2737
-0.1761 breathe </s> 3.2737
-0.1249 brilliant </s> 3.0976
-0.3010 brother </s> 3.0976
-0.4771 brother is -0.2815
-0.1761 brown </s> 3.2737
-0.1761 bubbles </s> 3.2737
-0.1761 bug in -0.2802
-0.1249 bugs </s> 3.0976
-0.1761 build </s> 3.2737
-0.1761 buisness </s> 3.2737
-0.1761 bull shit 0.6021
-0.1761 bullshit </s> 3.2737
-0.1761 bungee jump 0.1761
-0.1761 burp </s> 3.2737
-0.1761 burped </s> 3.2737
-0.1761 bus </s> 3.2737
-0.1761 bush </s> 3.2737
-0.0792 business </s> 2.8758
-0.1249 busy </s> 3.0976
-0.4771 but </s> 3.2737
-0.3010 but what -0.3852
-0.1761 butt </s> 3.2737
-0.1761 butthead </s> 3.2737
-0.1761 buy </s> 3.2737
-0.8846 by </s> 3.0976
-1.0607 by bus 0.1761
-1.0607 by car 0.4771
-1.0607 by humans 0.0414
-1.0607 by killing 0.1761
-1.0607 by plane 0.1761
-1.0607 by the -0.2952
-1.0607 by train 0.3010
-0.8846 by we -0.4307
-1.0607 by what -0.2178
-0.5229 c </s> 3.0976
-0.6990 c clark 0.3010
-0.6990 c clarke 0.3010
-0.6990 c threepzero 0.1761
-0.3010 ca </s> 3.0976
-0.4771 ca peut -0.1549
-0.1761 cache memory 0.3010
-0.1761 calculator </s> 3.2737
-0.1249 calculette </s> 3.0976
-0.1761 californie </s> 3.2737
-0.7782 call </s> 3.2737
-0.2341 call me -0.4779
-0.7782 call you -0.2283
-0.1761 calm down 0.3010
-0.1249 came first -0.3724
-0.1761 camera </s> 3.2737
-1.4346 can </s> 2.8758
-1.8325 can anyone -0.2139
-1.8325 can be -0.2576
-1.8325 can borrow 0.1761
-1.8325 can fly 0.0669
-1.8325 can happen 0.3010
-1.8325 can have -0.2956
-1.8325 can help 0.0000
-0.4523 can i -1.5387
-1.8325 can imagine 0.1761
-1.8325 can kill 0.0669
-1.8325 can listen 0.0000
-1.8325 can machines -0.0792
-0.8325 can not -1.1888
-1.8325 can pigs 0.3010
-1.6564 can say -0.2900
-1.6564 can see -0.4260
-1.6564 can speak -0.2881
-1.8325 can tell -0.2612
-1.8325 can understand -0.0414
-1.8325 can wait 0.1761
-1.5315 can we -0.5485
-0.8548 can you -1.1525
-0.1761 capable of -0.2930
-0.0969 capital of -0.5775
-0.1761 capitals </s> 3.2737
-0.1761 capricorne </s> 3.2737
-0.0792 car </s> 2.8758
-0.2430 care </s> 2.9727
-0.5441 care about -0.2695
-0.1761 careful </s> 3.2737
-0.1249 carefully </s> 3.0976
-0.1761 cares </s> 3.2737
-0.1761 cars </s> 3.2737
-0.0969 case </s> 2.9727
-0.3979 cat </s> 3.2737
-0.3979 cat is -0.2815
-0.1383 cats </s> 2.6716
-0.7404 cats or -0.2553
-0.1761 cauchemards </s> 3.2737
-0.1761 caulfield </s> 3.2737
-0.1761 cent </s> 3.2737
-0.1761 century </s> 3.2737
-0.1761 certain </s> 3.2737
-0.3010 cerveau est -0.1761
-0.4771 cerveau grandit 0.1761
-0.3010 cha </s> 3.0976
-0.4771 cha cha 0.0000
-0.1249 chair </s> 3.0976
-0.6368 change </s> 3.0976
-0.8129 change le -0.1047
-0.8129 change my -0.2550
-0.4150 change the -0.6813
-0.1761 changes le -0.1047
-0.1761 changez le -0.1047
-0.1249 changing the -0.4654
-0.1761 charles darwin 0.1761
-0.1761 charlie mccarthy 0.1761
-0.2430 chat </s> 2.9727
-0.5441 chat bot 0.3010
-0.1761 chatted </s> 3.2737
-0.6021 chatting about -0.2648
-0.2041 chatting with -0.4851
-0.1761 cheated </s> 3.2737
-0.1761 checked </s> 3.2737
-0.0792 cheese </s> 2.8758
-0.1249 chess </s> 3.0976
-0.1761 chewbacca </s> 3.2737
-0.1761 chicago seven 0.0669
-0.3010 chicken </s> 2.9727
-0.4260 chicken or -0.4065
-0.1761 chies tu 0.0000
-0.3979 child is -0.2998
-0.3979 child machine 0.1761
-0.1249 children </s> 3.0976
-0.1761 chinese room 0.4771
-0.1761 choice </s> 3.2737
-0.1761 chose the -0.2952
-0.1249 christmas </s> 3.0976
-0.1761 church </s> 3.2737
-0.1761 cigarette </s> 3.2737
-0.1761 cigarettes </s> 3.2737
-0.4260 cinq </s> 3.0976
-0.6021 cinq fois -0.0792
-0.6021 cinq plus -0.2139
-0.1761 circuit </s> 3.2737
-0.1761 circumstances </s> 3.2737
-0.1761 city </s> 3.2737
-0.1761 clams </s> 3.2737
-0.3979 clarify </s> 3.2737
-0.3979 clarify what -0.2178
-0.1249 clark </s> 3.0976
-0.1249 clarke </s> 3.0976
-0.1761 clean my -0.2969
-0.1761 clear </s> 3.2737
-0.1761 cleared up -0.0706
-0.1761 clearly </s> 3.2737
-0.1761 client </s> 3.2737
-0.0969 clients </s> 2.9727
-0.1761 climb </s> 3.2737
-0.3979 clinton </s> 3.2737
-0.3979 clinton immoral 0.1761
-0.3979 clock </s> 3.2737
-0.3979 clock smarter 0.1761
-0.1761 clones </s> 3.2737
-0.5441 close </s> 3.2737
-0.5441 close by -0.2403
-0.5441 close enough 0.5441
-0.1249 clothes </s> 3.0976
-0.1249 cloudy </s> 3.0976
-0.1249 cock </s> 3.0976
-0.3979 code available 0.1761
-0.3979 code source -0.0792
-0.1761 coffee </s> 3.2737
-0.1249 coincidence </s> 3.0976
-0.1761 coins </s> 3.2737
-0.1761 coke </s> 3.2737
-0.4260 cold </s> 3.0976
-0.6021 cold here 0.3222
-0.6021 cold outside 0.3010
-0.3979 collect coins 0.1761
-0.3979 collect stamps 0.1761
-0.0969 college </s> 2.9727
-0.8553 color </s> 2.7966
-0.5543 color are -0.8230
-1.3324 color designates 0.1761
-1.1563 color hair -0.2730
-0.4030 color is -1.0997
-1.3324 color red 0.0669
-0.1761 com </s> 3.2737
-0.1761 coma esta 0.3010
-0.1249 combien de -0.3010
-0.2041 come from -0.5144
-0.6021 come on -0.1919
-0.1249 comfortable </s> 3.0976
-0.1761 comment </s> 3.2737
-0.1761 common </s> 3.2737
-0.3979 como esta 0.3010
-0.3979 como estas 0.1761
-0.1761 company makes -0.2341
-0.1761 complete </s> 3.2737
-0.0792 complicated </s> 2.8758
-0.0969 compliment </s> 2.9727
-0.1761 comply </s> 3.2737
-0.3979 composed la -0.1761
-0.3979 composed the -0.2981
-0.1065 computer </s> 2.3195
-1.0607 computer are -0.1449
-1.0607 computer program 0.0414
-0.1761 computerics </s> 3.2737
-0.6021 computers </s> 2.8758
-0.6990 computers are -0.5496
-1.0000 computers died 0.7404
-1.0000 computers have -0.2956
-1.0000 computers laugh 0.3979
-1.0000 computers should -0.2730
-1.0000 computers to -0.2835
-0.1761 con </s> 3.2737
-0.1249 conditions </s> 3.0976
-0.1761 confidential </s> 3.2737
-0.1761 confuse me 0.0162
-0.1761 confused you -0.2283
-0.1761 congratualtions </s> 3.2737
-0.1761 congratulations </s> 3.2737
-0.1761 connector </s> 3.2737
-0.1761 consciousness </s> 3.2737
-0.3680 contact </s> 3.0976
-0.3680 contact him 0.2041
-0.1761 context </s> 3.2737
-0.1761 continues </s> 3.2737
-0.1761 continuez </s> 3.2737
-0.1761 contradict yourself 0.2218
-0.3010 cook </s> 3.0976
-0.4771 cook book 0.1461
-0.2499 cool </s> 2.6205
-0.9031 cool beans 0.1761
-0.9031 cool dude 0.3010
-0.9031 cool to -0.2790
-0.1761 cop out 0.0000
-0.1761 copy </s> 3.2737
-0.1761 corner </s> 3.2737
-0.1761 corners </s> 3.2737
-0.0969 correct </s> 2.9727
-0.5441 cost </s> 3.2737
-0.5441 cost money 0.6532
-0.5441 cost nothing -0.0637
-0.1761 cough </s> 3.2737
-0.5315 could </s> 2.8758
-0.6284 could be -0.5470
-0.9294 could not -0.2614
-0.9294 could say -0.2632
-0.7533 could you -0.4741
-0.3979 count </s> 3.2737
-0.3979 count to -0.2967
-0.0969 country </s> 2.9727
-0.1761 course </s> 3.2737
-0.1761 cows </s> 3.2737
-0.1761 cramped in -0.2583
-0.1761 crash </s> 3.2737
-0.1761 crashed </s> 3.2737
-0.1761 cray </s> 3.2737
-0.1761 crazy </s> 3.2737
-0.1249 create you -0.4044
-0.6021 created by -0.2615
-0.6021 created linux 0.0000
-0.4260 created you -0.4044
-0.1761 creater </s> 3.2737
-0.0969 creator </s> 2.9727
-0.1761 creators name -0.0202
-0.1761 creature is -0.2998
-0.1761 crichton </s> 3.2737
-0.1761 criticism </s> 3.2737
-0.3979 crois le -0.2139
-0.3979 crois moi 0.0969
-0.1761 crow a -0.2991
-0.1761 croyez moi 0.0969
-0.0969 cry </s> 2.9727
-0.1761 cthreepo </s> 3.2737
-0.1249 cunt </s> 3.0976
-0.1761 cup </s> 3.2737
-0.1761 curiosity </s> 3.2737
-0.1761 curious </s> 3.2737
-0.1761 cut the -0.2981
-0.0792 cute </s> 2.8758
-0.1761 cya </s> 3.2737
-0.1761 cycle </s> 3.2737
-0.1761 d abord 0.1761
-0.1249 dad </s> 3.0976
-0.1761 daddy </s> 3.2737
-0.1249 dallas </s> 3.0976
-0.5441 damn </s> 3.2737
-0.5441 damn it -0.2149
-0.5441 damn you -0.2283
-0.1761 danach </s> 3.2737
-0.1249 dance </s> 3.0976
-0.0792 dangerous </s> 2.8758
-0.1761 dank </s> 3.2737
-0.1761 danke </s> 3.2737
-0.1761 darn </s> 3.2737
-0.1761 darwin </s> 3.2737
-0.3979 data </s> 3.2737
-0.3979 data from -0.2663
-0.2499 day </s> 2.6205
-0.9031 day been -0.2583
-0.9031 day before -0.2389
-0.9031 day going -0.1047
-0.1761 days in -0.2942
-0.6532 de con 0.1761
-0.4771 de grandir 0.1249
-0.4771 de temps 0.2218
-0.1761 dead </s> 2.7966
-0.6532 dead one -0.0669
-0.1761 deal </s> 3.2737
-0.1761 death </s> 3.2737
-0.1761 debbie does -0.2893
-0.1761 decide </s> 3.2737
-0.1761 decided </s> 3.2737
-0.2430 deduction </s> 2.9727
-0.5441 deduction interessante -0.0969
-0.1761 deep throat 0.1761
-0.3979 define fine 0.1761
-0.3979 define it -0.2149
-0.1761 defined </s> 3.2737
-0.1761 definitely </s> 3.2737
-0.1761 definitiv </s> 3.2737
-0.1761 dell </s> 3.2737
-0.1761 depend on -0.1919
-0.1249 depends </s> 3.0976
-0.1761 depression begin 0.0000
-0.1249 depuis combien 0.1249
-0.3979 der affen 0.1761
-0.3979 der art 0.3010
-0.1249 derby </s> 3.0976
-0.1761 des vetements 0.1761
-0.1761 designates the -0.2981
-0.1761 destroy you -0.2283
-0.1761 dickhead </s> 3.2737
-0.1761 dictionary </s> 3.2737
-1.0607 did </s> 2.6716
-1.6628 did elvis -0.2218
-1.2648 did he -0.6542
-1.2648 did i -0.6852
-1.4867 did it -0.4718
-1.6628 did nine 0.0000
-0.6214 did not -1.2206
-1.6628 did rich -0.1249
-1.6628 did say -0.2632
-1.6628 did she -0.2632
-1.6628 did the -0.2981
-1.6628 did they -0.2793
-1.6628 did too 0.0000
-1.4867 did we -0.4445
-1.4867 did what -0.3914
-0.5488 did you -1.2524
-0.0152 die </s> 2.1276
-0.0414 died </s> 2.5747
-0.1761 dies </s> 3.2737
-0.4260 different </s> 3.0976
-0.6021 different languages -0.1249
-0.6021 different question 1.1461
-0.1249 difficult </s> 3.0976
-0.1761 digress </s> 3.2737
-0.1761 dingue </s> 3.2737
-0.1761 directed starship 0.8129
-0.1761 directory </s> 3.2737
-0.1761 dirty movie 0.0177
-0.1761 dis </s> 3.2737
-0.1249 disagree </s> 3.0976
-0.3979 discovered america 0.2218
-0.3979 discovered electricity -0.1461
-0.1761 discussing you -0.2997
-0.1761 disponible </s> 3.2737
-0.1761 dive </s> 3.2737
-0.1761 dmx </s> 3.2737
-1.3442 do </s> 2.2323
-2.3856 do algebra 0.3010
-2.2095 do all -0.4341
-2.3856 do androids 0.1761
-2.3856 do babies -0.0792
-2.3856 do birds 0.1761
-2.3856 do computers -0.2553
-2.3856 do feet 0.1761
-2.3856 do for -0.2460
-2.3856 do guys 0.1761
-2.3856 do here 0.3222
-1.1069 do i -1.4439
-1.8415 do it -0.7557
-2.3856 do leprechauns 0.1761
-2.3856 do man 0.2218
-2.3856 do mind 0.1761
-2.3856 do my -0.2969
-0.4148 do not -1.8172
-2.3856 do other -0.2389
-2.2095 do people -0.4127
-2.2095 do say -0.2900
-1.8415 do that -0.7707
-2.2095 do they -0.4325
-2.3856 do this -0.2398
-2.3856 do those 0.1761
-2.3856 do too 0.0000
-2.3856 do want 0.0843
-2.3856 do we -0.2475
-1.9877 do what -0.6133
-2.3856 do with -0.2762
-0.4639 do you -1.9017
-0.1761 documentation </s> 3.2737
-1.2730 does </s> 2.9727
-1.3979 does a -0.4713
-1.5740 does aiml -0.1249
-1.5740 does ayuh -0.0792
-1.5740 does dallas 0.3010
-1.5740 does elvis -0.2218
-1.3979 does exist 0.6021
-1.5740 does ftp 0.1761
-1.0969 does he -0.7238
-1.5740 does isp 0.1761
-0.7959 does it -0.9647
-1.5740 does lela 0.1761
-1.5740 does more -0.2632
-1.5740 does mxmvii 0.1761
-0.9720 does not -0.8522
-1.5740 does pro 0.1761
-1.5740 does rem 0.1761
-1.5740 does sugar 0.1761
-0.9720 does that -0.8833
-1.5740 does the -0.2981
-1.5740 does their -0.0792
-1.5740 does your -0.2867
-0.6021 dog </s> 3.2737
-0.6021 dog died 0.7404
-0.4260 dog is -0.4245
-0.3010 dogs </s> 2.9727
-0.4260 dogs are -0.4528
-0.1761 doh </s> 3.2737
-0.5229 doing </s> 2.7966
-1.0000 doing great 0.2218
-1.0000 doing here 0.3222
-1.0000 doing lately 0.1761
-1.0000 doing tomorrow 0.3010
-1.0000 doing tonight 0.3010
-0.8239 doing what -0.3939
-0.1761 dommage </s> 3.2737
-0.1761 donation </s> 3.2737
-0.3010 done </s> 3.0976
-0.4771 done what -0.2178
-0.1761 dork </s> 3.2737
-0.1761 doubt that -0.2266
-0.1761 douglas adams 0.1761
-0.1249 down </s> 3.0976
-0.1761 downloading </s> 3.2737
-0.2041 dream </s> 2.8758
-0.6021 dream of -0.2930
-0.1249 dreams </s> 3.0976
-0.2341 dress </s> 2.7296
-0.7782 dress is -0.2992
-0.7782 dress look -0.0580
-0.3979 drink </s> 3.2737
-0.3979 drink beer 0.1761
-0.1761 drinking </s> 3.2737
-0.1761 drive </s> 3.2737
-0.1761 drogen </s> 3.2737
-0.1761 drop the -0.2893
-0.1761 drove </s> 3.2737
-0.1249 drums </s> 3.0976
-0.4393 du </s> 2.9727
-0.7404 du drogen 0.1761
-0.7404 du etwas 0.1761
-0.7404 du sud 0.1761
-0.1249 dude </s> 3.0976
-0.1249 dumb </s> 3.0976
-0.1761 dumbass </s> 3.2737
-0.1761 dummy </s> 3.2737
-0.1761 dying </s> 3.2737
-0.3979 e </s> 3.2737
-0.3979 e t 0.1761
-0.1761 early </s> 3.2737
